tree
version=v4
num_class=1
num_tree_per_iteration=1
label_index=0
max_feature_idx=11
objective=binary sigmoid:1
feature_names=price brand category_l1 age_group avg_order_value unique_cats segment_value segment_variety baby_age_months item_popularity user_brand_buy_count days_since_last_purchase
feature_infos=[3000:6990000] -1:23:305:700:348:172:378:683:87:706:415:585:451:69:296:750:12:289:336:619:25:710:514:31:577:106:273:176:313:470:334:365:533:775:121:204:724:473:512:80:357:130:162:85:324:17:487:651:3:231:589:438:658:439:335:581:266:293:260:154:405:292:765:553:291:319:687:332:458:668:476:516:276:287:230:337:685:713:113:397:474:435:762:751:63:67:310:427:720:312:697:228:526:193:83:353:386:345:170:257:381:485:320:166:660:346:135:10:66:84:71:264:418:617:47:277:75:354:586:676:141:677:92:422:480:628:82:437:194:537:380:165:600:721:96:15:452:78:379:773:205:742:19:506:517:359:272:93:105:558:86:701:389:21:232:233:262:192:95:134:221:181:315:411:339:595:184:684:584:598:252:603:746:158:428:392:318:321:60:342:145:484:33:128:207:616:258:691:777:682:253:112:666:29:531:155:164:615:99:361:532:678:511:639:409:475:430:579:495:218:340:431:661:369:739:200:109:27:404:692:77:530:650:325:442:732:760:236:408:519:271:611:156:210:416:212:385:142:349:333:32:136:347:153:667:103:102:37:229:195:261:559:621:494:429:657:183:538:150:138:450:1:679:686:441:653:722:355:518:563:295:492:214:548:664:331:652:675:108:423:199:674:133:351:118:382:168:592:740:100:456:717:244:284:343:649:206:370:126:391:49:147:101:610:152:527:178:196:327:596:477:57:448:690:708:222:279:759:39:618:234:748:179:326:582:640:446:223:48:224:322:655:702:745:413:417:472:648:756:445:275:714:612:201:256:546:55:424:727:104:734:89:283:629:0:62:115:68:131:159:367:705:20:654:638:525:11:180:211:643:645:188:707:443:58:521:157:227:723:547:574:64:311:395:420:503:297:680:8:202:410:557:144:267:464:602:208:278:400:463:35:123:146:330:571:604:42:140 -1:9:4:0:11:1:5:12:6:8:10:13:7:3 -1:67:89:80:1:91:84:94:27:73:10:82:24:49:85:35:93:28:83:39:11:5:60:53:56:18:30:34:15:6:68:38:26:77:87:31:44:3:37:79:51:86:23:42:55:47:81:8:12:48:70:52:71:2:45:33:40:90:19:41:88:32:74:43:29:54:76:59:7:13:78:4:63:61:17:21:25:58 [6000:3328222.25] [1:14] -1:2:0:1 -1:2:0 [-1:12] [1:230228] [1:352] [1:274]
tree_sizes=20823 19732 19542 13954 18228 13929 19351 13819 20431 20285 21038 18453 19579 20618 20894 19572 20355 14337 20323 20506 19564 13933 20554 19873 20958 21667 21077 22127 14340 20612 21886 14120 14057 21167 20878 20192 21188 20094 21615 21413 21058 20860 20327 20369 14286 19465 19709 19746 21314 19992 19246 18727 20237 17823 20081 19293 17494 19803 19371 19698 19180 18553 19883 18116 19962 16850 20081 19834 17578 18143 13984 17087 18399 17325 17259 18325 18627 14088 17060 17423 17541 17396 15993 16655 13968 15513 15397 13907 15845 15539 16631 18391 17622 15576 16675 15793 15720 16396 15737 15553 16802 16594 13966 13752 15359 15262 16330 15432 13794 15373 13640 16465 15661 15028 14782 15845 15183 16962 13624 14796 15436 16662 13609 17694 15506 15141 13692 15433 14906 15061 15619 16150 13575 15872 14620 13744 15335 15448 15171 15187 15958 15303 15262 14905 13680 16454 15209 15082 14958 15010 13856 14780 14804

Tree=0
num_leaves=128
num_cat=64
split_feature=11 10 9 1 11 1 9 1 11 9 10 1 1 1 1 1 11 1 10 1 1 1 1 10 5 10 1 1 11 1 11 9 11 1 10 1 10 10 11 1 1 1 1 9 1 9 1 1 5 10 1 1 1 1 9 1 5 11 9 1 1 1 10 1 5 1 1 1 1 1 9 1 9 1 1 1 9 3 1 10 10 3 11 1 11 10 5 11 1 0 0 1 10 1 9 10 11 1 1 1 5 9 5 11 1 9 1 1 1 9 1 11 9 5 0 1 10 9 9 9 1 1 9 10 3 1 1
split_gain=267351 40275.8 30372.8 29182.3 18643.2 16085.4 14107.4 9653.24 8375.21 5796.19 5493.28 4826.21 3673.13 3584.02 3539.83 3447.83 3198.03 2698.53 2572.08 2416.53 2178.44 2141.72 2039.79 1873.86 1758.43 1666.81 1540.71 1506.79 1401.69 1363.47 1275.82 1215.71 1055.17 993.211 977.698 1420.31 936.224 930.088 869.97 863.887 824.056 684.666 665.783 660.111 653.931 624.679 613.729 581.877 555.158 518.897 510.389 501.056 480.484 474.77 459.217 441.397 423.518 404.496 397.558 624.794 390.074 377.278 372.654 356.785 355.768 348.657 335.349 327.08 322.323 320.959 457.788 314.488 312.179 324.437 311.104 309.037 300.65 289.015 284.378 279.566 273.317 273.167 266.807 263.665 260.775 243.452 239.191 237.728 235.494 235.032 230.774 227.382 219.904 218.692 215.015 207.234 200.737 200.354 188.153 186.515 185.408 180.583 176.069 173.378 165.359 164.904 162.278 161.837 160.327 159.97 155.711 154.221 154.196 153.261 152.849 149.623 145.4 144.505 142.997 142.69 400.705 142.169 141.805 141.452 144.35 138.15 136.832
threshold=57.500000000000007 2.5000000000000004 11280.000000000002 0 117.50000000000001 1 58697.500000000007 2 26.500000000000004 20405.000000000004 1.5000000000000002 3 4 5 6 7 121.50000000000001 8 5.5000000000000009 9 10 11 12 2.5000000000000004 2.5000000000000004 1.5000000000000002 13 14 183.50000000000003 15 80.500000000000014 12543.000000000002 28.500000000000004 16 5.5000000000000009 17 1.5000000000000002 1.5000000000000002 27.500000000000004 18 19 20 21 4015.5000000000005 22 85137.000000000015 23 24 2.5000000000000004 2.5000000000000004 25 26 27 28 200994.00000000003 29 2.5000000000000004 40.500000000000007 31902.500000000004 30 31 32 11.500000000000002 33 2.5000000000000004 34 35 36 37 38 40176.000000000007 39 34378.000000000007 40 41 42 66962.000000000015 43 44 1.5000000000000002 2.5000000000000004 45 79.500000000000014 46 175.50000000000003 1.5000000000000002 4.5000000000000009 80.500000000000014 47 37500.000000000007 87500.000000000015 48 1.5000000000000002 49 103048.00000000001 4.5000000000000009 144.50000000000003 50 51 52 3.5000000000000004 5995.5000000000009 3.5000000000000004 72.500000000000014 53 40176.000000000007 54 55 56 19380.500000000004 57 88.500000000000014 4770.0000000000009 2.5000000000000004 462500.00000000006 58 3.5000000000000004 923.00000000000011 13351.500000000002 34378.000000000007 59 60 112567.00000000001 3.5000000000000004 61 62 63
decision_type=2 2 2 9 2 9 2 9 2 2 2 9 9 9 9 9 2 9 2 9 9 9 9 2 2 2 9 9 2 9 2 2 2 9 2 9 2 2 2 9 9 9 9 2 9 2 9 9 2 2 9 9 9 9 2 9 2 2 2 9 9 9 2 9 2 9 9 9 9 9 2 9 2 9 9 9 2 9 9 2 2 9 2 9 2 2 2 2 9 2 2 9 2 9 2 2 2 9 9 9 2 2 2 2 9 2 9 9 9 2 9 2 2 2 2 9 2 2 2 2 9 9 2 2 9 9 9
left_child=1 5 11 6 10 32 31 38 14 15 26 112 82 -6 -5 118 23 79 27 -17 -10 84 86 40 74 44 -4 -16 42 92 49 89 114 111 35 105 78 53 -7 -29 -13 -30 45 -18 -26 69 -25 54 -35 65 -38 -45 -20 -19 76 -39 -42 -36 59 -49 -51 -41 -54 -37 -53 -24 -46 -48 -50 -27 88 -66 73 -43 -23 -44 -32 -59 -31 106 -73 -62 123 -74 94 115 -14 -88 -71 -3 -8 122 -21 -87 -15 121 -77 -52 -80 -61 -34 -100 -65 -69 -70 -22 -11 -104 -63 -68 -111 -28 -2 -40 -1 -58 -101 -91 -9 120 -97 -83 -60 -12 -125 -79 -82
right_child=2 3 4 8 13 7 90 9 20 17 12 16 22 21 18 19 43 37 52 29 34 24 30 46 25 28 33 39 41 36 47 -33 100 48 57 63 50 55 113 61 56 72 75 51 66 -47 67 58 68 60 97 64 62 -55 -56 -57 85 77 91 99 81 108 -64 102 71 -67 109 103 104 70 -72 80 83 -75 -76 96 -78 125 98 -81 126 95 -84 -85 -86 93 87 -89 -90 117 -92 -93 -94 -95 -96 119 -98 -99 101 116 -102 -103 107 -105 -106 -107 -108 -109 -110 110 -112 -113 -114 -115 -116 -117 -118 -119 -120 -121 -122 -123 -124 124 -126 -127 -128
leaf_value=-0.15071846858625032 -0.48525132989172204 -0.32181837806967778 -0.44763400506994372 -0.10191092074923219 -0.46015742018964723 -0.17200056910048536 -0.17020580705354441 -0.46288722610700456 -0.15551125395547566 -0.34003308868509458 -0.39556898324832157 -0.30970133558143292 -0.1502100231260636 -0.41958918929752698 -0.13623644816675196 -0.23984247214606436 -0.46958198129016826 -0.31899788138596585 -0.11048121723866827 -0.31445977609583442 -0.33825169380812153 -0.17821341095203413 -0.36119140631571511 -0.38565089805058045 -0.3720526260174879 -0.48417030281554868 -0.28806476259415725 -0.30796223928222133 -0.30031644133725288 -0.42511664394334991 -0.36106804656689917 -0.33363707318086838 -0.14815973942094368 -0.22982340868832538 -0.18066691186092729 -0.1870186018763644 -0.38703787992461702 -0.20301628907173508 -0.14980467502138142 -0.1717435311705251 -0.25564243663244945 -0.44467192949207734 -0.27864655139500288 -0.46491668242906059 -0.43462568118912975 -0.27909310027193235 -0.22408746380344458 -0.39213119439625344 -0.40716576665002124 -0.22053789432297455 -0.25435388307131912 -0.28157622833964646 -0.15974762001533138 -0.27087073644947285 -0.21954348712325217 -0.25879553157638135 -0.36725387384376568 -0.31765405154365761 -0.32165056960124311 -0.26465768387579125 -0.36701978922497325 -0.18725452040813742 -0.12744643040510881 -0.16371430930654549 -0.37099820878440237 -0.28445984139513925 -0.42564112295250156 -0.28448652125360496 -0.34081901810680248 -0.42794208877985163 -0.34343853669672025 -0.44265764255994899 -0.39860979464326368 -0.39492289257301272 -0.29990039650405176 -0.31977886367544039 -0.47302037327711421 -0.29251205189476837 -0.33653829838190696 -0.32691319743507408 -0.42330105481554647 -0.32376252973389003 -0.41005762657281436 -0.35889411358421391 -0.44498368426492008 -0.2964513871019761 -0.20625306708550439 -0.25333960890929563 -0.37555508463864262 -0.47201265879939253 -0.26621402287445972 -0.27178553318904497 -0.25457840604434007 -0.40785997476509345 -0.33707149350758964 -0.35709029464290398 -0.35218121469116115 -0.3229296600374566 -0.41187765887133382 -0.34419622078381229 -0.23332125416497351 -0.37420303070863803 -0.20903801280917278 -0.33997935000377455 -0.37332804361303734 -0.24828767126188456 -0.39735577470442685 -0.25125230450553265 -0.2268058391969493 -0.37963751629222825 -0.40712867356575233 -0.33277812634261966 -0.46741326311588427 -0.25347971605972763 -0.1195804298682786 -0.4408065025548164 -0.29278831417716888 -0.43807090764512402 -0.40777260738309451 -0.23851956981905731 -0.24437713025721403 -0.27044659418220918 -0.27450765496430651 -0.42424368446794741 -0.31674623337054625 -0.20976890960937034 -0.37489685642980292
leaf_weight=3471.9439072161913 22822.527423799038 137.01513066887856 2066.4417216181755 20448.654955253005 8382.7904856204987 4505.164768025279 3136.7200554907322 2913.6438196152449 7133.0759663879871 731.64129383862019 571.46524250507355 700.67879989743233 414.45858031511307 3974.6577852219343 4023.6614173650742 1948.4429258108139 9418.6931372433901 3168.4139469265938 7151.3609037548304 1651.0079446434975 1481.3237258791924 406.16940870881081 843.78890968859196 1602.4919108301401 4980.0855412334204 282.80703127384186 1898.7078961730003 830.37995561957359 768.69876690208912 1921.6250176727772 1833.8573183119297 1063.9395555853844 301.82336613535881 274.76165883243084 5589.0958551317453 1907.7284652739763 1255.5656991899014 2341.2033804506063 152.37447805702686 3142.571235448122 148.22989225387573 2297.0757316052914 1019.5681075751781 4356.4472774416208 5452.324523627758 665.81551931798458 383.9836847037077 1168.5293973237276 2272.6958151161671 2099.5984080433846 501.00728385150433 173.34120623767376 7449.5272824168205 5823.6306517571211 206.74169182777405 3841.2996420264244 339.36843752861023 296.94738283753395 2437.7478497475386 784.78951178491116 275.49305632710457 1566.1658352613449 6861.2398975342512 305.48035360872746 1005.1839568465948 1926.0134026408195 2803.6903962492943 833.79314392805099 2242.9523169994354 1575.1864043623209 2569.1555996239185 6711.3034111261368 4640.4733045399189 3470.2373130619526 447.85906590521336 3588.9675063639879 275.98065465688705 236.72898910939693 868.16882617771626 1614.6818690747023 1647.3509571701288 837.45013140141964 2238.8077311962843 2738.1084208935499 6255.8865711092949 194.30793441832066 2147.3830443620682 2141.5318644046783 2101.5488013625145 2440.185841396451 272.07986801862717 3171.3395369052887 975.68425789475441 2165.9117808938026 343.02542500197887 442.49548427760601 4091.6813843697309 2558.1846372038126 1965.9964656829834 1225.5784019082785 1670.9994761645794 3605.5458495765924 1238.2559584826231 1733.6558615416288 5575.9307002276182 236.24139077961445 1705.3751584142447 4395.9427421540022 4335.9681475907564 3233.7521231174469 7166.9640503078699 1299.2057497054338 6152.2719260305166 2220.0351954996586 2887.5573089718819 5632.9797048121691 998.35758022964001 2581.1017587035894 561.46947674453259 2553.0648547410965 1059.0635722875595 1238.4997576475143 864.26803953945637 137.01513066887856 838.9129263907671 4205.0479960441589 1055.8941831439734
leaf_count=14241 93612 562 8476 83875 34384 18479 12866 11951 29258 3001 2344 2874 1700 16303 16504 7992 38633 12996 29333 6772 6076 1666 3461 6573 20427 1160 7788 3406 3153 7882 7522 4364 1238 1127 22925 7825 5150 9603 625 12890 608 9422 4182 17869 22364 2731 1575 4793 9322 8612 2055 711 30556 23887 848 15756 1392 1218 9999 3219 1130 6424 28143 1253 4123 7900 11500 3420 9200 6461 10538 27528 19034 14234 1837 14721 1132 971 3561 6623 6757 3435 9183 11231 25660 797 8808 8784 8620 10009 1116 13008 4002 8884 1407 1815 16783 10493 8064 5027 6854 14789 5079 7111 22871 969 6995 18031 17785 13264 29397 5329 25235 9106 11844 23105 4095 10587 2303 10472 4344 5080 3545 562 3441 17248 4331
internal_value=-0.317698 -0.216898 -0.396559 -0.176555 -0.366763 -0.284523 -0.34136 -0.307322 -0.15741 -0.326169 -0.318577 -0.45058 -0.295287 -0.398575 -0.135264 -0.362855 -0.427067 -0.286624 -0.154658 -0.344483 -0.203084 -0.390585 -0.283174 -0.388508 -0.382534 -0.384821 -0.367347 -0.188127 -0.369095 -0.357849 -0.294891 -0.430965 -0.156594 -0.354993 -0.220274 -0.243261 -0.371438 -0.267283 -0.197984 -0.209563 -0.414521 -0.392271 -0.348806 -0.448846 -0.404653 -0.371289 -0.336063 -0.316273 -0.370021 -0.27028 -0.333649 -0.435782 -0.132909 -0.287778 -0.361585 -0.237392 -0.423066 -0.19889 -0.306387 -0.330427 -0.258038 -0.200549 -0.144382 -0.225296 -0.423562 -0.307873 -0.413274 -0.308937 -0.37389 -0.380774 -0.375733 -0.426025 -0.397601 -0.415092 -0.240187 -0.330138 -0.375712 -0.220382 -0.391003 -0.359082 -0.431723 -0.270554 -0.387803 -0.384037 -0.431829 -0.426171 -0.222955 -0.229764 -0.398456 -0.451039 -0.177869 -0.290856 -0.292313 -0.398981 -0.413033 -0.266146 -0.337015 -0.311529 -0.380559 -0.306253 -0.220292 -0.387372 -0.23779 -0.321941 -0.364044 -0.32583 -0.380565 -0.241664 -0.216108 -0.404376 -0.398727 -0.306266 -0.481407 -0.246821 -0.13658 -0.436916 -0.321103 -0.454566 -0.453591 -0.252906 -0.277368 -0.291757 -0.309337 -0.356058 -0.332922 -0.214112 -0.404997
internal_weight=336327 147629 188698 92466.4 121619 55162.5 9631.04 46830.2 82835.4 39952.6 48362.9 67078.4 32732.2 73256.5 55809.5 20726.3 38103.6 19226.2 35360.9 17251.2 27025.9 64873.7 28946 13735.4 54300.2 53446.1 15630.7 13898.7 29809.3 15302.8 24242.7 6222.24 8332.32 13564.3 19892.8 9564.97 12676.1 15174.5 6877.57 9875.09 9181.48 13914.6 15894.7 24368.2 23636.8 7194.51 4553.92 12967.2 10366.3 11275.5 4314.76 14949.5 21462.1 8992.04 2316.58 6182.5 8480.8 10327.8 10650.6 4177.25 8505.67 9044.71 14310.8 7847.41 10593.1 2769.8 18656.7 2951.43 10091.6 6528.7 6245.89 10419.7 13145.9 5767.31 854.028 8700.22 2109.84 4738.72 8361.34 4051.7 9414.55 6406.07 3786.2 7378.58 10573.6 8332.57 4703.37 4288.91 3676.74 5158.3 3408.8 6473.36 2626.69 2360.22 4317.68 6130.57 7680.65 3059.19 6439.71 3008.73 1972.82 5571.54 5939.68 2567.45 7818.88 1717.57 2437.02 5634.2 5902.13 13204.4 10400.7 3197.91 28974.8 2372.41 6359.5 5972.35 2223.94 5021.29 3475.11 4054.62 1501.56 2075.95 3302.02 1547.39 975.928 4441.78 2703.25
internal_count=1379524 605535 773989 379273 498851 226262 39504 192085 339769 163875 198372 275138 134259 300479 228916 85014 156291 78861 145041 70760 110853 266095 118729 56339 222725 219222 64113 57009 122270 62768 99437 25522 34177 55637 81595 39233 51994 62242 28210 40505 37660 57074 65196 99952 96952 29510 18679 53188 42520 46249 17698 61319 88032 36883 9502 25359 34786 42362 43686 17134 34888 37099 58699 32188 43450 11361 76525 12106 41393 26779 25619 42739 53921 23656 3503 35686 8654 19437 34296 16619 38616 26276 15530 30265 43370 34178 19292 17592 15081 21158 13982 26552 10774 9681 17710 25146 31504 12548 26414 12341 8092 22853 24363 10531 32071 7045 9996 23110 24209 54161 42661 13117 118847 9731 26085 24497 9122 20596 14254 16631 6159 8515 13544 6347 4003 18219 11088
cat_boundaries=0 23 47 71 94 117 141 165 189 212 237 261 285 309 333 358 382 406 431 453 475 499 524 548 572 597 621 645 670 693 718 740 764 789 813 838 862 886 909 922 944 969 993 1017 1020 1044 1047 1070 1081 1104 1128 1152 1177 1202 1226 1245 1267 1291 1314 1338 1361 1386 1389 1413 1438
cat_threshold=8388608 32 4 65536 0 268435520 536903680 16 0 2164260864 201326592 67108992 0 57344 134217728 0 0 0 0 256 1536 34603008 268566592 2147487744 3 1048576 0 423624704 0 4 960 0 24 32 134217728 0 0 268435480 0 524309 512 2 0 3145728 268439552 0 67108864 0 32768 8921088 104 1174405152 0 8 1024 6 256 245824 1073741824 0 0 37748736 0 1048672 0 0 2048 395264 0 0 32768 8388608 65568 4 33620096 0 327744 1610612736 0 32 16777216 67248256 67108992 536871200 8404992 16777216 16384 0 0 1048576 256 0 33554432 131136 2147516416 0 44 4194816 0 32 1048576 112 32786 16777248 201359376 67108864 256 0 0 0 16400 0 40 2048 268435456 10240 131072 2147483648 0 537919500 4194816 0 32 1048576 96 32786 16777248 134250512 67108864 288 0 0 0 16404 0 8 2176 0 2048 393216 64 2147487744 0 1048576 0 1275068416 0 5 640 4 280 32 134217728 0 0 301989912 0 524309 512 2 0 3145728 268963840 0 67108864 8388608 32 4 34145280 1024 64 536870912 1048576 0 16777216 2214592512 8320 256 16384 134217728 16384 33280 0 0 1073742080 1536 33554432 131152 1048576 0 0 805570600 33555456 132 1056 0 16 2098432 2151677954 33554432 67117058 2105348 0 0 0 0 0 16777728 512 268435456 32 131072 133120 33554432 65536 16 536870912 10485760 16384 268439553 65536 160 4198400 33280 0 0 1280 128 16512 0 1024 2147483648 134217728 262144 1073741824 16 640 5128 0 8388736 64 64 65536 4098 512 65536 280 720896 134217728 2147483648 4194304 37748736 128 1048576 0 2 0 2048 268435456 66048 603979776 32768 0 262176 0 201326593 16777216 4 144 0 138412032 71319552 0 8192 64 335544344 0 1 524800 32 0 268697600 268443712 1048576 1024 5128 32768 84096 0 192 2163712 4099 0 1048576 1073741840 589824 0 1048576 0 4195328 67109040 1048576 0 2 0 2048 0 0 16384 2147483648 0 536870956 37749760 0 4128 1048576 48 32784 150994978 134217744 67108864 256 64 0 0 16 0 8 0 268435456 10240 131072 1024 8 32771 8388608 8 306184192 0 8 320 2 32 245760 0 0 0 71304192 128 1048608 0 0 2048 264192 32768 0 536903688 512 2621440 0 6291456 256 9 524288 0 536870944 2554331136 1073741824 16 268697600 32 1074266112 67108864 2214592512 262144 0 272629760 8 8192 0 8192 16781312 524296 0 1114112 0 0 10551296 4100 384 1048576 1073741840 65536 536871456 2147483648 2097152 272630792 49 0 0 134217730 0 2048 0 65536 536870912 32768 0 32 33560192 0 32 0 32 134250512 0 805306385 0 33554432 0 0 1 0 16384 808 1056768 268435456 10368 0 0 32 0 0 0 33687296 132 32 0 0 0 1073741824 536870912 8196 35659776 1 4 0 0 0 800 8192 256 1073750144 0 1 65536 64 67108864 524288 4472848 268439616 4196352 144 4259904 0 0 128 256 16 1065024 0 0 0 1056769 268435468 536870920 32768 16384 0 64 1040 1 4096 64 1073741824 524288 268435968 2147483648 0 1024 33 1048576 0 134217728 8 134217728 537395200 512 536870912 41943040 2147483648 8388608 33555456 1073872896 4096 0 0 2098180 2181038082 268566528 134217728 2147483648 4 33554432 0 33554432 0 17301504 1048576 3145728 4096 4 32768 32 537399296 0 2097152 0 196 2098192 67112960 256 68 1073741848 524288 0 2149580800 1 1024 49 0 0 0 0 2048 0 512 536887296 35684352 0 9437216 132608 0 36 32768 0 2097168 2147483648 268435473 8192 0 0 100663296 1 0 32768 8736 8192 0 0 268435456 32768 2097152 0 537919488 33554432 67239936 0 4 384 4 2147483650 1048576 0 2147491840 64 335544336 0 5 524288 532480 128 262144 64 1048576 1024 32 0 0 0 131584 132 0 1085568 16 2097168 2147483648 0 67108868 8192 8192 0 1 0 0 74272 8192 268435456 1073750016 268436480 8404992 35684352 131072 3145728 512 0 36 1048576 1024 32784 2147483648 402718738 8192 0 67141632 100663296 1 24576 0 32 0 1024 128 268435456 32768 8 32769 8388736 8 268435456 0 4096 320 65538 0 249856 0 1048576 0 71304192 0 1048672 0 0 2048 264192 32768 0 536903688 512 0 268435456 0 0 8257 2166784 2 268439552 1048640 33554464 0 32 1048576 12582912 0 32 35651584 0 9216 0 0 537397248 516 525320 2415919104 16512 1 64 0 12289 0 2147614720 0 528384 536870912 2147483648 2097152 67108864 67108992 0 0 0 0 0 537428032 65536 536870984 640 8388608 0 8388608 1024 8193 4100 0 0 0 8 268435456 8192 0 0 0 0 0 0 0 0 3145728 4096 131072 0 10747904 0 4 0 0 0 131328 256 33689600 134226466 2149580804 4196352 33554432 0 2097152 0 1024 0 0 805830688 66048 536870912 656384 2147483648 2621568 32 16777217 0 4098 0 2147680256 33685504 4160 1073741824 0 15204352 0 67108864 16576 0 0 0 131072 0 65536 64 128 655360 0 3735552 1 0 1024 286720 128 1048834 0 4214784 536871456 0 2099200 8 67108912 2113540 512 0 0 0 0 0 32768 2097152 0 541065216 33555456 131072 16781316 0 0 2098176 2151809026 268439552 4 134225920 64 0 0 0 0 532480 1048576 69206016 0 1049088 64 32 33554432 2147483648 0 33555456 256 4096 3 536875008 132096 2181169154 269615104 14 0 10487808 33554432 128 0 0 17301504 1048576 0 0 4 32768 134217730 0 0 64 67108865 524288 4472840 4160 1048576 0 4194368 0 16777216 33554560 0 4112 16388 0 256 0 4097 262156 0 16777728 32768 0 4456448 512 1 16777216 258 536870976 1024 2185232384 269484032 6 8192 4 67108864 128 16384 0 16785440 1050624 67108864 48 1048576 0 0 0 0 0 0 0 0 0 0 0 0 2147483648 0 0 65536 32 536887296 0 4472848 4096 1 0 4194368 268435456 2097280 1073741952 536871944 48 0 32784 0 512 1057025 268435468 8388608 0 8388608 33555456 4 69632 0 0 0 0 268500992 8192 0 0 0 0 0 0 0 0 0 0 0 0 32 8392712 0 8454272 1024 128 66560 4098 4096 0 1073741824 0 8202 0 0 4194304 160 0 0 514 0 0 536875008 0 16384 0 268468224 18432 0 448 10486800 0 0 2147483904 1073741824 524288 268435968 1048576 1 1024 2214592688 0 0 0 8 0 537395248 512 536870912 1090 1179776 533120 8 8388608 0 4194304 132 285212672 1073775104 24 524288 0 1 67108868 33619968 2 0 0 0 524288 134218240 2105360 0 8208 1032 16448 8389632 131200 524928 33554432 0 8454272 0 0 4096 2 0 131072 33685762 268439552 134217760 0 2099200 0 0 2097152 0 8192 0 1048576 0 4 8388608 0 8388608 33555456 0 0 0 0 0 0 268435456 0 0 524288 0 134217728 4096 0 0 0 33685768 4096 671088640 0 10487808 8 0 0 512 0 0 0 268435456 4 134744066 33554434 0 1073741824 16392 16 0 1024 268435456 1073741824 8392704 262144 130 1073741824 536870912 4096 32 16 0 2147483648 299264 16384 0 8392720 2 1073741824 0 0 16384 1040 2218786834 0 0 0 1048578 0 0 0 1 4144 33554432 16400 134217736 640 67112961 32768 8388608 512 0 0 33554561 4096 16384 65536 2215116800 0 1050624 8388610 0 0 2048 4194304 536870912 48 33554432 32768 264 132 32808 536887296 1048578 0 32 537395200 268435456 274735104 0 256 16 0 0 2147483904 0 4096 512 2097152 4097 33554432 2147483649 2359456 0 134218752 8 134217728 536903680 65536 0 512 545395712 32768 8320 1 64 16 67117056 512 256 8 4198432 0 0 0 16 67108864 36175872 0 0 2147483648 134217728 805310464 64 67125248 0 0 268435488 0 0 32 0 0 2098432 4194306 0 0 4 0 0 0 0 0 16777216 2281701376 32770 4458496 0 201334912 10485760 5 268435456 2147614720 33554432 0 2 2097152 8912896 0 0 34078721 0 0 0 134217728 536904736 536870912 268435456 4194304 81 8256 16781312 8192 268436480 64 0 16 536871424 2148532256 2048 0 2147483648 2097152 0 1024 0 134217728 537133120 1049088 1040 8389632 0 268445696 0 8192 65540 0 512 0 0 0 8224 0 0 0 0 2621440 0 514 0 1048576 536870912 65536 133120 0 4718593 1024 574898176 0 1024 33 4 8 4096 1074003968 2048 1614807040 0 67108864 516 0 0 0 256 262144 1073741824 83890176 8388608 0 0 33555456 0 0 0 0 4 8 268435456 0 8224 0 8 0 0 0 0 0 2097152 0 1048576 0 2147483648 536870912 33554432 8192 4096 0 384 2098176 138543106 268435456 4 134225920 64 16 2147483648 160 0 532480 1048584 262144 4096 1048576 1024 32 1026 1048576 65536 0 0 8 33554432 134217728 4 0 96 0 0 32768 131072 0 0 4 2147483648 0 16400 4718624 1048576 268435456 12288 0 64 4096 3 8388648 1024 373293056 0 4096 512 65542 0 1 0 0 4 4194304 0 4 0 4194816 1056768 131072 2048 1048580 67125248 128
is_linear=0
shrinkage=1


Tree=1
num_leaves=128
num_cat=65
split_feature=11 2 9 10 11 9 2 11 10 1 10 2 1 11 1 1 11 2 1 1 1 1 1 5 1 11 10 1 10 10 10 1 11 1 1 9 1 10 1 11 9 10 1 1 9 9 1 10 0 10 1 1 5 11 1 10 1 5 1 1 1 10 1 1 10 11 1 1 9 11 2 1 1 10 1 10 9 1 1 3 1 1 1 2 5 5 10 9 1 1 1 1 9 5 1 11 9 1 2 1 10 1 9 1 1 11 10 1 5 2 5 11 11 3 1 10 11 1 11 9 1 11 10 10 1 1 1
split_gain=217102 46066.8 23769.8 20602.3 12625.1 12552.5 11373.9 5947.74 4982.37 3980.95 3763.42 3762.98 3715.89 3516.53 2915.56 2874.83 2194.53 2169.48 2103.36 1798.97 1729.86 1569.47 1405.17 1370.95 1330.02 1291.89 1282.75 1274 1249.87 1103.69 1053.05 1007.79 876.237 757.747 756.018 734.485 733.4 690.105 684.929 643.945 591.582 590.598 564.562 521.357 533.566 516.798 657.004 463.033 458.064 455.655 441.457 422.418 417.557 404.857 401.97 375.673 370.055 369.24 368.489 366.295 352.71 340.154 324.534 308.584 307.284 299.735 298.206 285.938 285.147 282.025 281.67 280.35 280.271 278.793 262.048 257.197 256.461 372.607 252.024 251.441 245.285 242.745 241.908 234.583 233.063 231.644 227.859 222.721 496.098 222.128 221.47 213.557 207.874 201.782 201.05 198.24 197.631 208.528 196.707 195.851 193.093 192.436 192.383 346.421 189.423 187.033 183.501 182.02 180.046 177.914 173.903 173.213 169.568 162.14 206.014 160.959 158.739 158.33 156.271 156.168 261.466 156.137 154.109 152.204 224.985 150.137 146.02
threshold=62.500000000000007 0 11280.000000000002 3.5000000000000004 121.50000000000001 12163.000000000002 1 27.500000000000004 2.5000000000000004 2 1.5000000000000002 3 4 24.500000000000004 5 6 121.50000000000001 7 8 9 10 11 12 2.5000000000000004 13 193.50000000000003 1.5000000000000002 14 1.5000000000000002 2.5000000000000004 1.5000000000000002 15 91.500000000000014 16 17 40176.000000000007 18 9.5000000000000018 19 44.500000000000007 4015.5000000000005 1.5000000000000002 20 21 85137.000000000015 35805.000000000007 22 2.5000000000000004 462500.00000000006 1.5000000000000002 23 24 3.5000000000000004 30.500000000000004 25 4.5000000000000009 26 3.5000000000000004 27 28 29 1.5000000000000002 30 31 1.5000000000000002 22.500000000000004 32 33 35000.500000000007 37.500000000000007 34 35 36 1.5000000000000002 37 2.5000000000000004 40176.000000000007 38 39 40 41 42 43 44 3.5000000000000004 3.5000000000000004 3.5000000000000004 35323.500000000007 45 46 47 48 103048.00000000001 1.5000000000000002 49 16.500000000000004 200994.00000000003 50 51 52 1.5000000000000002 53 112567.00000000001 54 55 6.5000000000000009 4.5000000000000009 56 4.5000000000000009 57 3.5000000000000004 42.500000000000007 40.500000000000007 58 59 4.5000000000000009 29.500000000000004 60 46.500000000000007 87855.000000000015 61 172.50000000000003 2.5000000000000004 7.5000000000000009 62 63 64
decision_type=2 9 2 2 2 2 9 2 2 9 2 9 9 2 9 9 2 9 9 9 9 9 9 2 9 2 2 9 2 2 2 9 2 9 9 2 9 2 9 2 2 2 9 9 2 2 9 2 2 2 9 9 2 2 9 2 9 2 9 9 9 2 9 9 2 2 9 9 2 2 9 9 9 2 9 2 2 9 9 9 9 9 9 9 2 2 2 2 9 9 9 9 2 2 9 2 2 9 9 9 2 9 2 9 9 2 2 9 2 9 2 2 2 9 9 2 2 9 2 2 9 2 2 2 9 9 9
left_child=1 3 12 6 10 11 13 17 21 41 27 29 109 48 -6 79 26 37 35 92 100 49 108 81 118 30 66 -4 53 60 54 105 45 69 110 83 65 58 -28 63 -18 91 -27 44 76 46 98 99 61 78 -42 96 -36 74 -25 -20 -40 -35 -5 -55 -3 80 -31 -26 -59 -30 -14 -41 89 -15 -37 -52 -45 -23 -22 93 101 -78 -7 -12 -1 -21 115 -10 -58 -71 -86 88 -53 -44 -54 -8 121 -73 -70 -19 97 -34 -24 -33 -11 -32 103 -84 -81 -13 -100 -68 -17 -2 -29 -43 -38 -69 -115 -47 -93 -113 -9 120 -112 -16 -110 124 -65 -48 -89
right_child=2 5 4 7 14 8 9 24 18 20 15 31 16 33 19 22 40 95 55 23 28 73 32 25 39 42 38 34 36 62 43 47 51 57 52 70 112 -39 56 67 50 111 68 72 -46 82 125 -49 -50 -51 71 87 90 59 -56 -57 84 64 -60 -61 -62 -63 -64 123 -66 -67 107 113 94 85 -72 75 -74 -75 -76 -77 77 -79 -80 104 -82 -83 102 -85 86 -87 -88 126 -90 -91 -92 116 -94 -95 -96 -97 -98 -99 106 -101 -102 -103 -104 -105 -106 -107 -108 -109 122 -111 119 117 -114 114 -116 -117 -118 -119 -120 -121 -122 -123 -124 -125 -126 -127 -128
leaf_value=0.057325017149590353 -0.1061769089200178 0.016086271517592187 -0.11992318266718338 0.1402510098882386 -0.13355401249900503 0.046298824912159919 0.077749272189255453 0.15516470227264656 0.039116186606003404 -0.097289952583721029 -0.0066824444146533117 -0.094141622821398582 -0.0101785617035336 0.11926187893147584 -0.093838397725169151 0.14655211758658937 -0.14117238646941274 0.1896727608461739 0.10231854346156591 0.11569902720882895 0.032525779349747048 -0.077684482563609047 -0.071340162359443959 -0.03526475877096491 0.12966353527321237 -0.041630856147398275 0.075044965959102178 0.10778876393518871 0.039270734373726746 0.14095697696258214 -0.10349483848404201 -0.012591292751762885 -0.15374706030919627 0.12631222290832961 0.038045235630476182 0.093834240373022751 0.074885411676418365 0.16203081786917609 -0.08131499878655532 0.087898008212885972 -0.1364721490744055 0.10895802445749457 -0.11596045261879331 -0.03305610490149382 0.029838250328494548 0.0022988065255999351 0.070012649053618148 -0.0051269851601809706 0.17835543146025545 0.064543735276640882 -0.043906550061132976 -0.08063078311220255 -0.083714413389583742 0.0040296672986008843 -0.081522249917987955 0.15521875514610617 0.093415225849757796 -0.017633496232553437 0.099265387822980347 -0.058877530722055066 -0.066028436939020649 0.15727535243731489 0.034468276367673037 0.017381540129471965 0.050699096949880486 -0.011814372702646595 -0.043451651232493893 -0.04111768151308106 -0.051293650476059577 0.14818002778960437 -0.03743734906736803 0.11163843887038559 0.0023547751890813534 -0.024580591882756464 -0.014383465472885588 -0.076439316156290446 -0.15479867462638117 -0.027061273137513164 -0.017220588833583926 -0.14350775049010353 0.12899250597974829 0.0062339495929832119 -0.047239109174820722 -0.043028689131485678 -0.056306174205685337 0.060008689020162209 -0.0056746330373272542 0.00140316884792037 0.0050024368379163568 -0.08323642867283465 -0.04651544947188907 0.056450213112154618 -0.057949072935005209 -0.11445492332523791 -0.083519071705982773 0.1712983027222896 0.081570086231281508 -0.046447720447689626 -0.038398231302592345 -0.1030722312974703 -0.042278964203296583 -0.056436972737540947 0.11961180623326913 0.067579234326596072 -0.069707831113124882 -0.14347686072570912 0.026649209205483467 -0.11394256732468495 0.044925636384409245 -0.15462930211635409 -0.15574575232609431 0.11414546562298673 0.035574540184932328 0.10103614031575021 0.037680368208397624 0.049061675261892555 0.0099559209606710879 0.044150314151771744 0.12322458624024298 0.033198389409522459 -0.0059075168988292383 -0.12033301688409753 0.087310643704612667 0.10797538715897362 0.089162643455850454 0.02416089671071198 0.037552889940309545
leaf_weight=613.74568410217762 983.29602226614952 757.57512529194355 2144.4449536949396 5300.7717249244452 7677.856693983078 861.12027886509895 2064.1422700732946 4196.725190192461 481.232117831707 1413.2338746637106 566.87871052324772 864.10149036347866 341.80694822967052 2298.2005247324705 3537.101567402482 354.37793482840061 9276.1848375201225 22764.6001906991 2632.9038202315569 449.85334472358227 2179.4123017936945 2799.8980653733015 746.43861013650894 2458.1940470784903 3640.9227785617113 3359.6670231819153 487.07419811189175 160.57891121506691 1996.1128831803799 457.45473146438599 1650.5979838371277 286.5672709196806 205.4527820199728 347.26111522316933 505.24823711812496 1278.8957209736109 3934.2529611289501 7976.8955260366201 2082.6256153583527 3005.6330467164516 4269.7091225087643 4583.3981557488441 4440.2168946564198 4472.9061086028814 728.39174032211304 1293.8194255828857 1069.0808670669794 808.05822288990021 4669.411231353879 1766.7183835953474 946.87596182525158 903.92301519215107 2136.8447514176369 1458.5657582730055 8763.1748000532389 2738.9556740671396 150.27020898461342 1313.3929707705975 4273.4805064499378 2542.0666273832321 1681.3407322466373 5166.7009212225676 796.14708139002323 584.49264796078205 1318.9760631322861 2704.9682221859694 440.10852546989918 200.4066608697176 2732.9248811751604 342.14176253974438 186.27763213217258 39.707726687192917 4462.7857910692692 1528.2191238254309 2603.2523734867573 2668.4489488303661 241.56434631347656 2691.5017988979816 2197.6443272382021 417.54546751081944 3630.2931038588285 376.38381028175354 284.0745989382267 1192.380501255393 1990.522207736969 2307.7628774344921 1605.9628419429064 2754.9339487850666 2606.4493086487055 4578.059532776475 7020.8465495705605 1631.7929983884096 817.30686748027802 6696.8502643108368 8034.5898223370314 7912.587425366044 103.20903751254082 1436.7830535471439 1002.4389430433512 2101.6899564862251 1163.293049171567 2069.5456871539354 592.15209881961346 2985.8132674247026 2801.8314051777124 6940.4469912648201 764.39049962162971 5094.0977342873812 1345.4744085371494 26221.683030113578 114.59743584692478 518.14397096633911 1521.6921904981136 648.51976446807384 2603.6994166374207 1707.4164782315493 1335.1352691203356 966.0772787630558 2412.3190313130617 991.18025422096252 1824.3322713822126 5992.8108671307564 2366.9130569249392 2469.2251923084259 1970.9545291811228 2234.3805718719959 1876.3992473483086
leaf_count=2503 4158 3115 9001 21345 32364 3513 8380 16895 1970 5899 2347 3639 1404 9282 14781 1427 39191 91352 10659 1817 8934 11639 3081 10188 14700 13894 1987 657 8139 1852 6912 1182 869 1405 2072 5176 15977 32052 8656 12171 18012 18525 18591 18439 2973 5300 4353 3298 18759 7188 3925 3753 8905 5984 36562 11044 617 5368 17269 10493 6989 20792 3261 2384 5355 11069 1824 822 11329 1381 751 162 18344 6294 10727 11115 1024 11096 9037 1736 14629 1540 1163 4899 8246 9369 6596 11282 10690 19076 29038 6647 3407 28105 33440 31768 418 5938 4124 8766 4793 8574 2403 12143 11653 29234 3131 21364 5463 111090 471 2095 6192 2631 10602 6953 5446 3924 9729 4061 7490 25167 9603 9966 7988 9129 7653
internal_value=-0.000184696 0.0855728 -0.0757338 0.113179 -0.0486172 -0.0207445 0.0671657 0.14912 0.0360546 0.0296466 -0.00754845 -0.0890419 -0.124939 0.122699 -0.0753829 0.0126185 -0.103777 0.168693 0.0911335 -0.06813 0.00454269 -0.0151555 0.0242109 -0.0604543 0.105685 -0.062549 -0.0692826 -0.048727 0.0150111 -0.00152644 -0.0479124 -0.118308 0.0144409 0.0694835 -0.036633 0.0257473 0.0389073 0.140227 -0.0379981 0.0890985 -0.121419 0.0782674 -0.0799637 -0.0316962 -0.0513475 0.0318473 0.00991788 -0.0703404 0.15275 0.0240608 -0.108887 -0.00786764 -0.0504027 -0.0126054 -0.071493 0.129051 -0.0474907 0.0292928 0.122207 -0.0360797 -0.0407268 0.140044 0.0747267 0.106971 0.0166053 0.00985577 -0.102912 0.0652554 -0.086408 0.0934373 0.0775297 -0.0972837 -0.0153879 -0.0587981 0.00703054 -0.102605 -0.0603129 -0.0382016 0.000756812 -0.0688093 0.119067 0.0673091 0.0504328 -0.0194321 -0.0285231 0.0713929 -0.0336973 0.00173187 -0.0172636 -0.0995692 -0.0553376 0.0530047 -0.106246 -0.113122 -0.0754651 0.184873 -0.052355 -0.0610905 -0.0285685 -0.0926997 -0.0721726 -0.0777461 0.0669909 0.0576665 -0.0796942 -0.137838 -0.0101988 -0.108425 0.0782576 -0.152918 0.00644125 0.0993433 0.0638045 0.0451588 0.050585 0.0288064 0.0354082 0.0696523 0.14329 0.000909085 -0.0155972 -0.110499 0.0719491 0.0900904 0.0731615 0.0391662 0.0161335
internal_weight=335091 156942 178149 124585 114854 32357.6 54623.4 69961.2 17664.2 32615.5 45318.3 14693.4 63295.2 22007.9 69535.4 30420.2 36090.2 48228.3 8510.65 61857.6 21516.9 9153.6 26633.9 51510.4 21732.9 50684.1 12192.5 14898.1 18940.3 3692.52 27538.7 11000.9 22567.2 7927.74 12753.6 3138.79 10157 17551.1 6316.46 15123.9 23897.8 11098.7 23145.5 16317.3 7381.6 12680 5816.73 3196.32 14080.2 4825.48 14621.6 9887.15 9662.94 8783.3 11221.4 5371.86 5829.38 2979.63 9574.25 4000.63 2438.92 9410.74 1253.6 8665.6 2632.37 4701.08 5876.01 6458.26 19785.8 4948.11 1465.17 10351.9 8935.69 4328.12 4782.66 9405.01 6653.21 2933.07 3058.76 3786.26 4244.04 826.237 6863.28 1673.61 3746.76 2649.9 3596.49 8141.71 3510.37 9018.28 9157.69 5031.07 10347.2 6736.56 10767.5 30677.2 1745.44 1642.24 2513.27 2388.26 2576.53 3720.14 3862.04 3269.89 3219.38 7804.55 1766.83 5534.21 4066.77 27205 3090.69 6067.62 5455.95 3452.63 3252.22 3001.24 2966.93 1484.22 6609.04 2930.11 1938.93 9529.91 3712.39 5024.67 2555.45 3303.46 4631.33
internal_count=1379524 637247 742277 503741 475825 133506 222067 281674 72170 133224 186307 61336 266452 88843 289518 124612 151204 193786 34499 257154 88207 37671 108876 213799 87888 210442 50694 61695 77515 15217 114112 46119 92383 32160 52694 12796 41377 70666 26102 61264 100510 45017 96330 67362 30579 51780 23818 13246 56683 19738 61319 40603 40015 36138 46750 21703 24115 12128 38614 16477 10104 37924 5113 35038 10723 19208 24592 26226 82436 20032 5927 43307 36783 17933 19661 39382 27606 12120 12550 15736 17132 3357 27962 6869 15459 10750 14842 33378 14443 37667 37943 20473 43355 28267 44769 123120 7225 6807 10336 9948 10692 15486 15709 13306 13389 32873 7255 23188 16493 115248 12679 24544 22169 14055 13233 12253 12093 6019 26624 12022 7961 39948 15066 20338 10372 13482 18935
cat_boundaries=0 1 2 27 28 51 75 98 99 122 146 168 192 216 240 263 287 311 335 360 384 408 433 457 481 506 530 554 579 603 627 651 675 699 724 725 747 772 795 808 832 835 859 883 908 909 931 956 980 1001 1020 1033 1034 1058 1069 1091 1108 1129 1130 1133 1158 1181 1194 1218 1243 1268
cat_threshold=6768 2096 545914888 302022656 532608 64 32 0 0 268435457 131072 131072 4722688 536871424 2147483648 0 0 67108864 16512 0 0 2048 134219776 0 65536 536870912 128 1026 8388608 65568 4 33620096 0 327744 1610612736 0 8388640 16777216 67248256 67108992 536871200 8388608 16777216 16384 0 0 1048576 256 0 33554432 131136 2147483648 0 537919500 4194816 0 32 1048576 96 32770 16777248 138444816 67108864 288 0 0 0 16404 0 8 2176 0 2048 393216 64 2147516416 0 44 37749248 0 32 1048576 112 32786 16777248 201359376 67108864 256 0 0 0 16400 0 8 2048 268435456 10240 131072 576 8388608 0 4 1024 0 0 0 16 0 2147483648 67108864 4 8192 65 0 0 0 0 32 1048576 0 8192 262144 32768 2147483648 262176 0 201326593 0 4 536871056 16 4194304 16384 0 8192 64 335544344 0 1 524800 32 1048576 268697600 268443712 1048576 1024 0 1073741824 536870912 37748864 1024 288 1073741840 0 32784 16777216 134217861 131200 0 134230016 0 0 0 0 66048 9600 268451840 1073741840 2098176 0 0 0 0 65552 12544 0 2148532480 0 0 32 1048576 2101248 0 49 2097152 0 138420232 2147484160 0 524352 1048640 16448 5128 32768 84096 0 192 2163712 4099 0 1048576 1073741824 524288 512 1048576 0 4195328 67109040 1048576 0 2 0 2048 0 512 16384 8523784 32768 8454272 64 0 0 3 512 65536 24 200704 134218240 2147483648 4194304 37748736 128 0 0 2 0 2048 268435456 66048 603979776 2147483648 0 536870956 37750272 0 32 1048576 48 32784 150994976 402653200 67108866 256 64 0 0 16 0 8 2048 268435456 10240 131072 8388608 32 4 589824 0 64 537919488 1048584 0 0 2214592512 67108864 65792 16384 134217728 16384 33280 0 134217728 1075838992 1536 33554432 131144 1048576 2147487744 2 9437184 0 201326592 0 4 960 0 152 81952 1207959552 0 0 37748760 0 524293 512 2 0 1048576 268435456 0 67108864 524296 0 9502720 0 0 10551296 4100 256 1048832 1073741840 0 544 2147483648 2097152 268436488 49 0 0 134217730 0 2048 536870912 65600 536870912 32768 0 2147483688 131088 131072 4096 0 0 2098176 1073741826 268435456 67108864 134219776 67108932 4 32768 0 0 17309952 0 16809984 2048 1048580 1024 32 134217730 33554432 0 64 16385 524304 4472832 4160 0 128 4194368 0 0 128 0 4112 16384 0 0 0 1314817 262156 0 16777744 536875008 32768 0 131072 192 2098192 0 512 68 1073741848 524320 268435968 2149580800 1 1024 49 0 0 2 8 134217728 0 512 536887296 44040192 0 8388608 33555456 131072 16781312 0 268435456 2097156 2181038082 335675392 134217728 2147483648 2097156 33554432 0 0 0 17302016 0 70254592 4096 4 0 32 44040192 0 545259520 1024 67117056 4 0 128 1028 2281701378 268435456 8192 8224 64 0 0 0 0 532512 1048576 70516736 268435520 1048576 1024 35684352 131072 3145728 512 0 36 1048576 1024 32784 2147483648 402718736 8192 0 67141632 104857600 1 24576 0 32 0 1024 128 268435456 32768 0 0 537919488 0 67239936 8388608 0 128 2097152 2147483650 1048576 4 2147483648 68 67108872 0 5 524800 16785440 128 262144 64 1310720 1088 32 528384 0 268435456 0 196 10552336 67112960 0 0 1073741848 524320 32 2097152 1 1024 49 1572992 0 0 0 2048 0 66048 16384 33587208 0 0 132608 0 36 32768 0 2097168 2147483648 973078545 8192 0 49152 100663296 1 32768 0 74272 8192 0 0 268435456 32768 655360 2147516416 2621440 1 8256 4100 0 0 2147614720 33685504 0 536871424 2147483648 8914944 0 67108864 16384 0 1024 2048 2048 536870912 66048 536870912 128 33554432 0 81920 131072 72 10486784 2214592512 0 2415919104 1107296256 0 262144 0 4196352 0 0 33816576 0 0 0 40960 536871936 4 4096 33554432 0 1 0 0 2621440 4210688 0 1048576 0 0 67108866 0 0 536870912 16 67108864 0 4194304 2147483648 67108864 278536 0 16777216 2 0 1 8192 0 2622464 4210688 0 1048576 0 0 0 2 128 536870912 16 67108864 0 0 2147483648 0 278532 64 16777216 2148007936 0 3145728 0 1073741824 0 0 128 131078 33685760 540672 268435456 0 8390656 67109896 67108864 1589301 512 0 0 1310720 0 0 32768 135168 1 65536 0 71303168 524288 17424 268439617 4194308 144 4194304 262144 0 1073741824 0 0 1048640 0 0 0 1056769 262148 1073741824 67112960 0 2147483648 2637824 0 65 4096 0 0 2147615744 33685760 540672 536870912 4 8914944 1032 67108864 34619424 512 0 0 0 32768 4 32768 128 3 0 0 65536 1073741920 16384 0 4472848 4096 0 0 4194368 262144 2097280 1073741952 1032 16 0 32784 0 512 1057025 268435468 537001984 0 524288 1 1073741824 65540 8194 256 1049600 134349056 1118208 6 134217728 8390656 4194304 0 33554464 0 8192 0 0 33792 0 67141632 128 0 2147483648 2113536 257 8192 8393732 0 0 2415919104 33554434 268435472 268435456 32 13109248 4 32 0 32768 1024 12 32768 3072 512 0 0 0 0 0 0 0 0 0 0 0 0 2147483648 0 0 0 0 0 0 12288 0 0 0 0 0 0 2097152 0 0 0 0 0 2147483648 0 64 1048640 64 134217728 8 537198592 34816 0 0 8 536870913 16777216 524288 4160 134283266 160 4096 1073741824 0 1073741824 268436736 2147483648 64 16 0 128 131112 32768 1073741824 16 8392712 0 8454272 1024 128 70656 4098 4096 0 3221225472 0 8234 0 0 4194304 160 2097152 0 134218242 0 0 536875008 64 67125248 0 0 524288 0 67117056 4096 0 128 64 33685762 4096 0 8192 10485760 8 0 5 0 8192 0 0 32768 4 0 128 1026 8388608 0 8388608 1024 0 0 4 0 0 0 268500992 8192 8192 0 268435456 0 0 0 0 0 1048576 268435456 41943040 0 12582912 33555456 1073741828 69632 0 4096 0 134217730 335740928 8206 0 2048 4194304 0 33554432 0 4194304 2147483648 3145728 1024 0 0 32 32768 2147483648 262144 0 67108865 16781312 258 64 1024 37879810 1081344 12 8224 0 67108864 128 16384 0 16785440 1048704 0 32 1048576 1024 8388608 32768 532608 64 32 0 0 0 0 0 0 512 2147483648 0 0 0 0 0 0 2048 2048 8388616 0 16384 33555456 8196 65540 0 0 0 0 268435456 8192 4 0 4194304 128 0 0 1024 0 0 0 0 0 0 0 0 0 0 0 0 2147483648 145 0 8 301989888 0 20480 0 262144 0 0 0 0 0 0 128 0 16 0 0 0 0 257 0 8388608 16777216 8388608 0 8388608 33555456 0 0 0 0 0 0 268435456 0 0 0 0 0 0 0 0 0 0 0 0 2147483648 0 0 0 0 0 0 0 0 268435456 0 0 0 33554432 0 32 0 32 0 16777216 16 67108864 0 0 0 0 16 2048 2 4718592 64 302268416 0 4456448 32 2147483648 8 8425536 1073741824 0 4194432 4194560 16 36 134217728 0 0 393472 1090 1024 1179648 8192 34078720 0 5505024 0 0 16777216 0 384 2 128 4194304 268435456 150994944 0 335544320 4096 524308 0 16786688 0 1310720 16 8192 24 32 524288 0 128 0 0 0 0 0 0 0 4718592 0 2147483648 0 0 67108864 0 0 0 0 2048 0 65536 0 0 0 0 0 0 0 0 0 0 0 0 2147483648 536903680 0 40 33685504 0 16777216 0 32 2097168 0 19 67108864 134217760 64 4 0 64 0 512 0 268435456 2048 0 16 655360 268435456 270794752 0 256 8388608 0 0 0 0 4128 10 2097156 6144 33554432 1 2097189 0 134218752 2147483648 134217728 536904704 65536 67108864 512 0 0 8388608 1 0 4096 0 0 131328 33685760 4096 134217728 4 10485760 0 0 0 0 0 0 0 268435456 4 0 128
is_linear=0
shrinkage=0.1


Tree=2
num_leaves=128
num_cat=73
split_feature=11 2 9 11 9 2 11 1 1 1 1 2 1 1 1 11 1 1 1 9 9 1 1 1 5 9 1 11 1 5 11 1 1 9 9 11 1 1 1 1 11 1 9 11 5 1 9 5 1 1 5 9 3 1 9 11 1 1 3 3 1 1 11 9 1 3 1 1 1 2 11 11 4 1 1 11 4 1 3 1 5 5 1 1 9 1 3 1 9 4 1 11 4 5 4 1 5 4 3 3 1 1 1 1 2 11 11 3 1 3 9 1 11 3 1 1 9 1 4 9 1 9 3 11 1 1 11
split_gain=177802 38439.8 19022.5 15900 11053.2 8769.61 8225.25 4376.64 3845.82 3521 3320.86 3308.97 3063.2 2399.99 2399.32 1923.49 1381.24 1289.16 1264.52 1251.16 1165.77 1095.84 915.007 894.343 801.512 772.598 781.127 766.259 726.357 701.405 617.409 613.215 572.866 514.54 511.876 490.582 484.472 474.097 464.858 449.636 405.059 400.742 354.928 345.688 336.815 335.421 332.111 325.861 318.33 304.17 293.265 291.589 276.525 273.27 261.918 260.63 256.368 247.21 243.669 242.76 245.349 240.014 235.114 233.182 237.408 230.748 230.17 227.77 225.183 199.802 196.055 195.687 189.445 187.786 179.642 174.226 165.215 165.049 163.8 163.483 162.375 161.798 160.5 159.048 167.962 160.833 150.214 168.84 149.435 147.695 165.909 145.624 145.04 138.149 137.93 132.595 132.264 131.542 129.005 126.404 124.425 123.547 121.379 120.847 119.915 119.539 118.393 117.275 116.987 116.581 115.546 128.19 114.465 112.077 111.239 110.018 106.753 143.676 106.604 104.638 102.558 101.939 100.2 100.115 98.4969 94.5568 94.3382
threshold=67.500000000000014 0 12694.500000000002 28.500000000000004 11367.000000000002 1 135.50000000000003 2 3 4 5 6 7 8 9 141.50000000000003 10 11 12 82262.000000000015 29466.500000000004 13 14 15 2.5000000000000004 3072.5000000000005 16 45.500000000000007 17 3.5000000000000004 14.500000000000002 18 19 68988.500000000015 5835.0000000000009 197.50000000000003 20 21 22 23 95.500000000000014 24 85137.000000000015 45.500000000000007 3.5000000000000004 25 35000.500000000007 4.5000000000000009 26 27 3.5000000000000004 48636.500000000007 28 29 35229.000000000007 16.500000000000004 30 31 32 33 34 35 94.500000000000014 200994.00000000003 36 37 38 39 40 41 44.500000000000007 205.50000000000003 141397.07031250003 42 43 6.5000000000000009 211817.17968750003 44 45 46 2.5000000000000004 1.5000000000000002 47 48 32345.500000000004 49 50 51 35000.500000000007 116996.66015625001 52 89.500000000000014 121272.17578125001 3.5000000000000004 81323.007812500015 53 4.5000000000000009 87286.781250000015 54 55 56 57 58 59 60 186.50000000000003 152.50000000000003 61 62 63 2198.0000000000005 64 84.500000000000014 65 66 67 15553.500000000002 68 156696.38281250003 15126.000000000002 69 11981.000000000002 70 46.500000000000007 71 72 92.500000000000014
decision_type=2 9 2 2 2 9 2 9 9 9 9 9 9 9 9 2 9 9 9 2 2 9 9 9 2 2 9 2 9 2 2 9 9 2 2 2 9 9 9 9 2 9 2 2 2 9 2 2 9 9 2 2 9 9 2 2 9 9 9 9 9 9 2 2 9 9 9 9 9 9 2 2 2 9 9 2 2 9 9 9 2 2 9 9 2 9 9 9 2 2 9 2 2 2 2 9 2 2 9 9 9 9 9 9 9 2 2 9 9 9 2 9 2 9 9 9 2 9 2 2 9 2 9 2 9 9 2
left_child=1 3 8 5 11 30 10 43 -2 55 56 32 45 52 109 25 50 70 47 21 31 33 51 75 74 103 -27 37 105 81 69 -14 -3 96 110 46 -28 78 -24 -36 65 -29 82 -5 -38 94 57 -16 -32 -25 -12 53 -9 -11 59 101 -4 -30 -51 125 -61 -41 -52 64 -49 -31 -21 -46 -54 -1 -15 -66 -42 119 -20 -13 -50 -34 104 -48 -63 -23 98 -67 85 -85 -74 -88 95 -39 -91 -69 -40 -45 -6 -37 -18 -56 -22 -95 -90 -7 -99 -10 -19 -26 -81 -98 -62 -8 -17 -112 -109 -80 -86 -71 117 -94 -110 -33 -93 -92 -72 -96 -100 -43 -68
right_child=2 4 6 7 12 9 14 13 15 22 16 23 20 17 18 34 19 27 24 66 42 29 38 49 28 26 36 41 35 40 48 73 77 -35 39 88 44 89 92 61 72 54 -44 93 67 -47 79 63 76 58 62 -53 68 -55 97 -57 -58 -59 -60 60 108 80 -64 -65 71 83 126 91 -70 115 122 -73 86 -75 -76 -77 -78 -79 113 106 -82 -83 -84 84 114 -87 87 -89 100 90 121 120 116 99 123 -97 107 102 124 -101 -102 -103 -104 -105 -106 -107 -108 112 118 -111 111 -113 -114 -115 -116 -117 -118 -119 -120 -121 -122 -123 -124 -125 -126 -127 -128
leaf_value=0.17294925561164454 -0.14424310435156143 0.063204375159282358 -0.13586547958209583 0.11886094167423947 0.17065121168373776 0.13452863532921838 -0.057501239748770042 0.018587192432159328 -0.020767732246275358 -0.11451867060014641 0.12174174293024663 -0.086397878450535218 -0.079495675252459028 0.092189381582330615 0.039826324849286859 -0.14091193229432669 0.0067943976574076611 0.14196178252564834 0.11123686633459143 0.061626427787425532 -0.051453627493250553 0.15471474709760216 0.08470276689310971 0.018524647550421651 -0.084164822582422319 0.020789877623836245 -0.11061327219823552 -0.033222842048553296 -0.093213009906255348 -0.07201919338003622 0.089755447637100971 -0.065555401456048934 -0.066335015255855209 -0.15628569146672927 -0.034544230362796698 -0.10641572898584306 0.035393811979880577 0.057977187519137691 0.071278380237596972 -0.13178593930209873 -0.0075060754751336764 -0.14294798827051589 0.090960394744024189 0.1402069090711274 -0.019451324592431797 0.061574416075510931 0.043114149222166616 -0.14828173992552471 0.12716976362435514 -0.0027756861786566046 0.048192830067546863 0.07421789803024012 -0.13172259346854545 -0.0090074837089325031 0.099540712648275839 0.10246415492119115 -0.078009564690359051 -0.053800363647984663 -0.088899811062290959 0.057087513389815686 0.021466456724655112 0.022091533536441169 0.011897349787866881 0.0088044196601390432 -0.022216404251511574 0.025263630764223596 0.035150567451798231 -0.047611632986939795 -0.054830390353977312 0.15896699071371664 -0.037022388140483781 -0.056936942827495757 0.049686099630241745 0.01421211979612292 5.6536800456880434e-05 -0.1346635408307931 0.15095418753105688 -0.010720705459344776 -0.0091662761120032722 -0.024305787344657836 -0.097833058309394705 0.051017454065234481 0.00068014948504247906 -0.062357766272736273 0.028291098011489931 -0.010061094440132486 -0.070807777480572209 -0.032107487065835168 -0.037842338722047203 0.052055404365310212 -0.0086174614842682226 -0.040819833492171186 -0.0085754926392669541 0.0088917191232969137 0.10848617624368886 -0.076682110645149543 -0.11363047942648122 0.065474805988179882 0.084266587630363834 0.084621823502167792 -0.073981878582434518 0.11243892280018622 0.022838151412981421 -0.11628747822381154 -0.038530491987261439 -0.10827174086294176 -0.049909198973851605 -0.025072745761549581 0.011848582928324761 -0.12693764164850721 -0.062819981217545229 -0.12437442415570295 -0.062350181885867384 0.068641133303440641 -0.0050404468038070492 0.13064494067471924 0.052297338885294246 0.041247208000267731 -0.02331823543910562 -0.017807006167007922 -0.081081445145569475 0.024721106814384997 0.063394289341996882 0.061170962432060765 0.032258451510091234 -0.0027317721815435809 0.002587092429312141
leaf_weight=15169.512225657701 26449.242510974407 976.51641733944416 994.51240515708923 6667.3135004490614 290.82466670870781 8222.1792638450861 309.32829485833645 376.93538987636566 158.40110300481319 360.6541503816843 361.99269296228886 835.07619953155518 1869.5999096632004 3974.6169154495001 650.23139442503452 4888.2120120376348 349.54126250743866 462.94958865642548 225.46094514429569 1673.6671281158924 132.61081309616566 186.47410121560097 6221.7661983668804 368.77723821997643 3456.3748450428247 1152.1002999693155 1997.7543185204268 1647.1193704605103 2701.2837315052748 435.0404899418354 1325.318546295166 576.37164767086506 724.15275919437408 529.60116004943848 1016.6893684417009 2786.3109687715769 384.50350917875767 1596.4572751969099 2316.6848202347755 2747.9411410987377 3057.8142380267382 137.62422993779182 886.37019281089306 431.03141997754574 1239.3703238964081 5058.6798503398895 224.3320324420929 191.58883014321327 4135.1580747067928 386.58374209702015 3462.1005187928677 254.66926346719265 524.57290916144848 748.21389620006084 350.03824028372765 7087.8526833057404 4265.7975568920374 4226.5905618220568 2635.7588666975498 1001.939461261034 2236.4439029097557 114.56705023348331 3683.7139124125242 1103.7179208993912 3709.9737733304501 2194.3618129193783 1574.5874260365963 2848.5987310409546 1573.9524557739496 11468.346560075879 99.638513833284378 2885.9980811327696 191.283302500844 1743.6724750697613 389.71256022155285 7163.073731020093 9943.0245989412069 2002.1463799774647 198.83098828792572 2554.8237799555063 7770.1293424814939 779.20847225189209 1967.4678107351065 742.88497151434422 1662.9989706277847 2747.1994637697935 1362.4512468576431 6976.9453940838575 1183.9111010432243 1464.5744110494852 1434.283929631114 814.19771155714989 798.15736709535122 245.22422567009926 2023.8732824027538 4184.4573532193899 343.35595293343067 939.77406468987465 544.24203835427761 5262.7850480675697 7260.075458869338 5180.8240080177784 2398.6245562434196 3130.5430503487587 41.752613320946693 5080.4471151679754 6162.2152125239372 1136.0329257398844 1543.5647041797638 7170.2745720297098 438.73451772332191 5359.6104394495487 2996.3371047824621 4293.1604527235031 2491.4543928056955 2360.3722794353962 4468.3575797975063 2107.6357491910458 1952.209856659174 2252.9369126707315 4752.2002860307693 2543.8620527535677 3998.036179035902 574.03264187276363 1216.1334242671728 82.509008958935738 2045.2714004218578
leaf_count=60767 116685 3969 4302 26728 1168 32941 1336 1549 671 1518 1460 3599 7837 15973 2688 21439 1458 1858 906 6781 553 757 25073 1522 14708 4754 8562 6808 11512 1820 5326 2397 3030 2294 4267 11987 1598 6482 9392 11948 12691 567 3564 1730 5173 20469 937 833 16559 1618 14048 1041 2226 3089 1418 28438 18149 17757 11160 4073 9115 473 15104 4567 15427 8990 6413 12001 6546 45933 408 12086 794 7167 1607 31330 39814 8335 802 10637 33337 3194 8086 3103 6767 11316 5718 28959 4947 5922 5873 3444 3255 997 8150 17791 1453 3815 2221 21179 30741 20812 9749 13450 169 21876 25781 4722 6326 31216 1888 23346 12596 17306 10238 9469 18088 8590 8021 9331 20211 10358 16163 2323 4951 339 8425
internal_value=-0.000258447 0.0738472 -0.0725609 0.0987282 -0.0204174 0.125356 -0.0457341 0.0526664 -0.114777 0.0898448 -0.014465 -0.0844128 0.0300414 0.0343777 -0.0713468 -0.0946365 -0.00485186 0.0416343 -0.0632453 -0.013547 -0.00370645 -0.0219296 0.056502 -0.111064 -0.0706425 -0.0687425 -0.0579293 0.0301137 -0.0724099 -0.012356 0.155506 -0.0314158 -0.00213302 -0.0626021 -0.113781 -0.0652664 -0.0654269 0.0480606 0.0632483 -0.099282 -0.0160454 0.0125622 0.033894 0.10315 -0.0563336 0.0774633 -0.0529453 -0.0281845 0.139362 -0.0674165 0.0338855 -0.0221147 -0.06038 -0.0444385 0.0196609 0.117915 -0.0891848 -0.0693802 -0.0779293 0.00825447 0.0116781 -0.105341 0.0294823 -0.0338242 -0.040756 -0.00158921 0.0310563 -0.0600452 -0.0745849 0.164136 0.0762711 -0.0373514 -0.0288618 -0.0115599 0.0426132 -0.129462 0.143866 -0.0256813 0.0716254 -0.0402114 -0.0959688 0.0710415 0.0207914 0.00159653 -0.00522123 -0.0214002 -0.0365167 -0.0385074 -0.0779932 0.0311873 0.0233866 -0.0659224 0.0494008 0.0856865 0.104979 -0.0888297 -0.0524495 0.0412201 0.0414713 0.08142 -0.0690473 0.126174 0.0351051 -0.112104 0.126572 -0.0983961 -0.0423567 -0.0570762 0.00365541 -0.124147 -0.129587 -0.12004 -0.0519764 0.0651844 0.00835791 0.154231 0.0425947 0.0276744 -0.00776805 -0.0274371 -0.0754114 0.0126693 0.0610169 0.0980314 0.0487226 -0.0927954 0.0167056
internal_weight=331842 163877 167965 129649 34228.9 82168.7 102702 47479.8 65262.8 37767 46244.6 15092.1 19136.8 34873.5 56457.1 38813.6 40984.3 32398 48977.5 33476.5 11189.4 28183 17276.1 11389.3 40436 16477.7 13188.7 24325.7 39820.8 22828.1 44401.7 6442.58 3702.82 5354.87 22335.9 31284 12036.6 12035.9 15912.6 11649.3 21862.4 12289.8 4746.82 12606.4 10038.9 7947.41 15869.2 8541.51 15403.5 3391.12 7507.81 1363.54 2475.46 1108.87 10642.7 20490.9 5260.31 6927.87 3022.34 6954.29 6734.16 10632.6 7145.81 7891.28 6787.56 10273.9 5293.53 9654.37 2098.53 28998.2 8072.29 6595.97 11588.5 4572.98 615.174 7998.15 14078.2 2726.3 4996.69 8941.37 7884.7 965.683 3860.45 9838.9 7644.54 3490.08 8530.68 8339.4 15414.8 7039.18 5442.72 8415 9690.84 5939.04 2888.73 6970.77 4825.27 3688.44 1892.99 5508.01 8443.99 13403 3338.4 3288.94 504.702 8536.82 8717.04 4475.73 5732.22 7479.6 10686.6 5798.34 4132.37 4491.99 4154.45 13828.7 7374.15 2905.79 3495.77 2829.31 5566.4 3978.15 4097.67 2597.91 1760.38 220.133 3619.86
internal_count=1379524 665385 714139 522605 142780 330105 430892 192500 283247 152237 191552 64563 78217 141866 239340 166562 169101 131545 206788 138489 46107 116870 70046 49229 171187 69864 55743 99001 168674 94347 177868 26732 15334 22523 96698 132090 50989 48770 64398 50025 90396 50231 19375 50634 42427 32110 66624 35601 61699 14300 30612 5648 10321 4607 43423 82191 22451 29269 12778 28441 27535 45758 29152 32913 28346 42234 21619 40829 8772 116169 32544 27513 48162 18895 2513 34929 56373 11365 20135 37355 33810 3951 15811 40414 31424 14419 35471 34677 65466 28635 22153 35656 39325 23906 11641 29778 20229 14982 7725 22176 35688 53753 13564 14121 2027 36584 36418 18771 23462 32552 46673 25234 17318 18108 17005 55402 29933 11845 14347 11728 23655 16231 16571 10473 7172 906 14838
cat_boundaries=0 1 2 26 49 74 97 98 122 144 168 192 216 240 264 288 312 334 358 381 405 429 454 477 501 525 548 572 595 598 618 641 662 665 668 693 717 730 733 746 770 790 791 813 837 861 864 879 898 923 945 947 971 995 1020 1023 1026 1041 1063 1087 1111 1112 1114 1139 1142 1166 1168 1190 1215 1238 1262 1265 1277 1298
cat_threshold=6768 2096 8392704 2 8388736 64 134217728 0 0 512 4 408 65632 1207960064 2147483648 0 37748744 128 524324 512 2 0 2048 268435456 0 67108864 8388608 196640 4 33620096 0 65600 1610612736 0 8421408 16777216 67248256 67108992 288 8404992 0 16384 0 0 1048576 256 0 33554432 131136 8519688 2147516416 2629760 64 32 4096 0 268435456 2147615744 33685504 4096 512 0 4718592 0 67108864 16512 0 0 2048 134219776 2048 0 536870912 160 32768 0 536870956 4194304 1 32 1048576 112 16 150994976 202407952 67108864 0 64 0 0 16 0 8 2176 268435456 10240 393216 1026 2098176 0 0 0 0 65552 12288 0 2148532224 0 0 0 1048576 2097152 0 49 2097152 0 4194304 2147483648 0 524352 1048640 16448 0 0 536870920 37748864 1024 288 1073741824 32 134250528 16777216 135266449 67108992 0 134230080 0 0 0 0 66048 9472 268435456 1073741824 2147483648 0 537919532 4194304 67108864 32 1048580 224 0 16777248 138444816 67108864 0 0 268435456 0 20 0 8 2176 0 2112 393216 64 528392 32768 2162816 0 192 2162688 4096 0 1048832 1073741824 65536 512 0 0 4194304 177 2097184 0 134217730 0 2048 536870912 66048 67125248 655368 32768 1638400 0 268435552 0 13 1408 65538 131072 4866048 536870912 0 0 1040 67108864 1064960 0 0 0 0 0 65536 32768 4096 32768 24576 0 196 2163728 4096 0 0 1073741848 524288 0 2149580804 1 0 2147483825 0 0 514 0 134217728 536870912 512 536887296 2147483648 2147483648 1310720 33554432 67240192 16777216 0 268435456 2097158 2147483648 0 6 2147491840 4 0 0 4 0 8192 1049088 69468160 268435488 1048576 1088 32768 1073741824 536870912 37879936 1280 256 1073741840 0 32768 1224736768 142606340 128 2048 134225920 1 0 0 0 65536 9472 16384 1073741840 0 512 8388608 8388640 4 589824 0 64 537919488 1048584 0 0 2214592512 67108864 65792 16384 134217728 16384 32768 0 134217728 1075838992 1024 33554432 131144 1048576 4096 0 0 64 0 8913920 4472848 4096 1048832 128 4194368 262144 0 128 1288 4112 67108880 0 0 0 1310721 536887308 0 0 262144 0 1207959553 0 2 536870928 16 171966466 67256320 2 8192 2097216 24 0 1 512 4194304 0 270794752 268444672 1048576 1024 0 0 4 1536 4 0 1048576 16 0 0 67108864 8196 8448 1 0 0 0 524288 0 0 0 0 131072 33554432 0 1 0 0 2621440 4210688 0 1048576 0 0 2 0 128 536870912 16 67108864 0 0 2147483648 0 278528 0 16777216 264 1073741824 0 132608 4096 36 1048576 0 0 0 2315257856 8192 0 67149824 67108864 1 32768 0 532512 2105344 1024 128 268959744 33280 2147483648 1 2097152 40 1140850688 2101248 0 268435520 132096 33554432 4096 0 0 4196352 335544320 0 17 0 0 2048 3538944 1024 1073742340 0 640 537395200 301989888 2151694336 257 8256 8388608 0 1 0 0 268959762 268697600 2147483684 8390656 4194304 32 0 0 1024 0 0 536870912 74304 0 0 65536 64 16384 1024 4476952 4096 256 0 64 268435456 130 1073746048 1024 2147483696 0 32768 0 512 8193 268435468 0 528 134250496 1073741824 2147483680 256 8192 0 0 536870912 2097232 142606368 4 131072 134219776 67108868 0 0 16 49168 532480 0 32 0 0 1024 1024 0 0 0 0 0 12288 0 0 0 0 0 1048576 2097152 0 0 0 0 0 0 0 524288 1048640 34817 0 0 16 553648129 16777216 524288 4128 138412032 160 36880 32768 0 0 67109120 2147483648 0 16 268435456 128 131080 32768 1073741824 24 0 0 0 0 20480 0 262144 0 0 0 0 0 0 536870912 0 16 0 0 0 0 257 128 8388608 268435456 131080 536936448 0 0 0 33554432 1024 0 1073741840 0 0 16777216 134217728 128 0 8192 0 0 0 0 0 256 0 0 4 4194304 0 32 1048576 32 0 16777216 134217744 67108864 0 0 0 0 16 0 8 0 0 0 131072 41975808 2147483648 8388608 33555456 8448 16777216 0 268435456 0 2147483648 268500992 8192 0 2052 100663296 0 0 0 524288 1048576 68157440 268435520 0 1107595264 2 131072 536871424 2147483648 0 8192 40 71303168 10485760 0 4096 272629760 1073741824 4096 0 16777216 2048 256 4096 262209 0 0 0 1310720 536871936 0 4112 128 33587200 0 3145736 512 0 32 0 0 16 0 402718722 0 33554432 0 71303168 0 16384 0 32 0 1024 128 269484032 32768 0 0 0 0 0 0 0 0 0 0 0 0 2147483648 1024 131072 524800 8388608 0 0 0 0 0 0 0 0 0 0 0 2147483648 131074 0 2162688 1073746192 71303168 1048576 67108872 64 0 0 0 1073741824 0 0 0 2147483648 36716613 0 258 0 8456 268435456 0 25169920 0 0 0 37748736 1024 256 0 0 32768 16777216 0 128 0 0 0 0 0 0 0 8448 16 8388608 0 268435456 0 128 0 0 0 0 2147483648 0 34 2097152 64 0 0 0 0 8224 0 0 8192 8388616 0 8454272 0 0 0 2 4096 0 0 16384 8202 0 4194304 4194304 0 2097152 0 134217760 0 0 4096 64 67108864 2098176 65536 0 512 132 65584 4096 0 0 512 2048 0 100663296 0 0 0 0 524288 0 8192 67108864 1056768 16 8388672 402653184 2097160 262160 0 0 0 1024 0 0 0 0 0 0 0 8192 0 0 4194304 0 0 0 1024 0 0 0 0 256 0 0 8224 2097152 0 0 0 0 0 8192 132096 0 268453888 1 4 16 8197 128 2147614720 16 528384 0 3145728 6291456 301989888 67108864 1048576 512 32 0 135266304 0 64 0 640 8388608 0 8388608 1024 8192 0 0 0 0 0 268435456 8192 0 0 0 0 16384 0 524288 0 0 4096 1073743872 524352 0 268435456 268435456 1024 8192 0 6 128 0 2 0 0 3145728 8388609 268435464 2147483648 1 512 16778272 0 0 524288 0 8 570425344 33554432 4202496 17 591396872 8388608 0 4097 2147483648 1073741856 32768 268697600 0 0 256 0 192 0 0 0 134217728 536907776 8192 536875016 41943040 2147483648 12582912 33555456 0 0 0 4096 0 0 268500992 8192 0 2048 4194304 0 33554432 0 16777216 2147483648 0 4096 0 0 32 0 0 512 1026 131072 33587200 8388608 0 0 33555456 0 4 0 0 0 0 0 8192 0 0 4194304 8388616 32768 128 0 0 4096 0 0 0 131072 0 0 0 0 0 0 0 0 0 2048 0 2048 2181038080 0 0 0 0 0 0 0 2147483648 0 268439552 0 0 0 268435456 0 0 0 0 0 1048576 0 512 8 3072 8 0 1073741824 0 16777216 4194560 536870976 4196353 128 16384 536870912 50331648 0 268435456 0 576 16 134217728 0 134217736 262144 1073741824 16777216 16 8388610 131072 0 2449473537 6291456 131072 1610612992 5120 2 65 1024 0 0 268697600 0 524288 335544320 0 33554432 0 1024 128 134225920 4096 1073750532 0 512 1073741824 8 536870912 0 0 4194304 4144 1912602624 524288 262144 0 272629761 144 0 0 16777344 536870913 536870924 67108864 0 524304 65536 0 1081600 262144 0 16777232 1024 131072 41943040 0 8388608 1024 0 4 0 0 0 264 268451840 8224 0 0 0 0 0 0 0 0 0 4096 4096 0 8388608 0 83886080 0 1 0 65536 280 212992 0 0 0 104857600 0 1048608 0 2 0 262144 268435456 0 67141640 512 167772160 0 262144 0 0 4 2 0 2097152 4194304 0 67108864 16777216 64 0 0 0 0 532480 128 0 0 4 0 2147483648 0 32 536887332 0 2147483648 257 268435461 1073741840 8392704 0 153092224 1077936129 65536 32 0 49152 0 0 36864 16 8192 16 1024 0 1073741824 0 0 0 1024 0 0 0 0 0 0 0 8192 2147483648 0 262144 0 0 0 0 0 0 0 0 0 0 0 0 0 64 0 0 0 1310720
is_linear=0
shrinkage=0.1


Tree=3
num_leaves=128
num_cat=38
split_feature=11 2 9 2 11 9 11 9 2 11 9 9 11 9 5 11 0 5 2 9 11 2 3 11 11 2 9 9 5 11 9 9 11 0 3 5 3 5 4 11 0 4 11 9 0 5 2 9 11 2 11 4 3 5 2 9 2 11 0 9 0 3 9 3 3 2 0 4 5 9 2 2 0 0 11 4 4 3 4 9 2 0 0 0 0 11 2 2 3 3 2 9 0 4 3 5 3 0 9 2 11 0 9 0 0 0 3 0 0 9 4 4 3 5 3 11 2 2 0 4 5 4 2 0 0 3 3
split_gain=146241 30614 17773.5 17516.4 8804.01 5590.51 5447.39 3082.55 2295.62 2114.48 2048.77 1634.73 1185.74 1170.39 856.224 849.333 819.9 791.681 785.37 772.908 771.909 756.861 701.984 627.568 491.578 484.043 458.755 438.197 420.855 418.721 371.749 366.025 351.001 343.186 337.953 327.311 313.138 298.364 297.233 295.901 270.789 301.337 262.294 250.721 249.412 248.934 245.603 236.481 234.153 231.382 227.443 221.684 221.173 220.704 220.636 218.286 277.412 215.075 211.821 208.7 207.614 207.364 204.483 190.4 188.793 180.738 180.697 277.957 177.509 185.26 176.35 175.903 173.088 172.664 166.798 164.294 163.176 160.008 154.078 151.43 157.639 304.053 151.393 150.399 229.756 149.158 147.928 141.046 136.705 136.515 135.953 178.236 134.345 129.324 129.044 128.413 121.84 121.284 119.646 131.611 118.673 116.168 114.851 114.488 115.527 112.86 135.115 112.918 112.667 114.379 109.28 108.208 107.776 107.259 103.992 102.074 101.015 100.66 99.5656 99.2216 96.6554 95.9821 95.9017 94.9976 139.905 94.8166 93.9903
threshold=64.500000000000014 0 9062.0000000000018 1 122.50000000000001 21167.000000000004 29.500000000000004 35805.000000000007 2 22.500000000000004 35805.000000000007 35323.500000000007 136.50000000000003 3395.5000000000005 3.5000000000000004 26.500000000000004 316000.00000000006 3.5000000000000004 3 6818.5000000000009 175.50000000000003 4 5 91.500000000000014 171.50000000000003 6 34378.000000000007 141677.00000000003 4.5000000000000009 43.500000000000007 169215.00000000003 11001.000000000002 14.500000000000002 446500.00000000006 7 2.5000000000000004 8 2.5000000000000004 128790.95312500001 17.500000000000004 96500.000000000015 139519.56250000003 50.500000000000007 16866.000000000004 98500.000000000015 3.5000000000000004 9 3395.5000000000005 86.500000000000014 10 50.500000000000007 161888.31250000003 11 2.5000000000000004 12 169215.00000000003 13 84.500000000000014 113000.00000000001 6698.5000000000009 299500.00000000006 14 4594.0000000000009 15 16 17 115500.00000000001 169728.75781250003 3.5000000000000004 99220.500000000015 18 19 316000.00000000006 32500.000000000004 49.500000000000007 247212.12500000003 147873.13281250003 20 126609.09765625001 112567.00000000001 21 326500.00000000006 199500.00000000003 244500.00000000003 96500.000000000015 6.5000000000000009 22 23 24 25 26 17561.000000000004 77500.000000000015 167119.28906250003 27 1.5000000000000002 28 457000.00000000006 3560.0000000000005 29 91.500000000000014 19500.000000000004 12694.500000000002 155500.00000000003 232500.00000000003 64500.000000000007 30 32500.000000000004 109500.00000000001 52926.000000000007 330085.39062500006 124465.65625000001 31 4.5000000000000009 32 16.500000000000004 33 34 76250.000000000015 157556.54687500003 1.5000000000000002 253635.21875000003 35 292000.00000000006 169500.00000000003 36 37
decision_type=2 9 2 9 2 2 2 2 9 2 2 2 2 2 2 2 2 2 9 2 2 9 9 2 2 9 2 2 2 2 2 2 2 2 9 2 9 2 2 2 2 2 2 2 2 2 9 2 2 9 2 2 9 2 9 2 9 2 2 2 2 9 2 9 9 9 2 2 2 2 9 9 2 2 2 2 2 9 2 2 9 2 2 2 2 2 9 9 9 9 9 2 2 2 9 2 9 2 2 9 2 2 2 2 2 2 9 2 2 2 2 2 9 2 9 2 9 9 2 2 2 2 9 2 2 9 9
left_child=1 6 8 7 10 13 16 9 47 21 17 14 35 85 46 18 32 87 75 58 45 126 50 52 65 57 83 74 -24 66 36 33 90 -30 -27 -10 -22 -38 73 97 41 -36 72 82 51 120 -6 -2 125 108 121 -31 -12 -25 77 56 60 -19 119 -40 -47 92 -14 -56 -42 -16 67 -21 -54 118 -55 -39 -33 -23 -17 115 -67 -26 -65 80 81 -72 -34 84 -7 -5 -64 -4 -82 -46 91 -1 -15 -73 113 -48 -78 -18 -50 -100 -43 -63 -103 -68 -105 106 -61 -108 109 -28 -41 -58 -107 -49 -45 -9 -113 -71 -70 -11 -13 -8 -94 124 -118 -37 -3
right_child=2 3 4 5 11 26 22 15 12 19 23 20 62 61 24 27 39 25 -20 29 30 38 28 53 54 34 49 -29 31 44 -32 42 43 -35 40 48 37 71 59 110 64 100 -44 114 89 55 95 94 98 -51 -52 -53 68 70 63 -57 111 -59 -60 105 -62 101 86 78 -66 76 103 -69 69 117 79 93 -74 -75 -76 -77 96 -79 -80 -81 88 -83 -84 -85 -86 -87 -88 -89 -90 -91 -92 -93 122 -95 -96 -97 -98 -99 99 -101 -102 102 -104 104 -106 112 107 -109 -110 -111 -112 116 -114 -115 -116 -117 123 -119 -120 -121 -122 -123 -124 -125 -126 -127 -128
leaf_value=0.020035943825872458 -0.14063617985843654 0.012647378369536123 0.0072107367135581775 -0.078772583852883812 -0.040909484362732368 -0.027278948253396874 0.015170902878012555 0.11614170568837155 0.078037935157670449 -0.020040610840705048 -0.034311968451650139 0.13665317194631812 -0.12262338809416747 -0.091320808649593854 -0.045057606335357749 0.060177102009005383 0.14501941335315291 0.010816253211093311 0.049679398043322512 0.046265498179721753 -0.12149140425858224 0.11300118916652005 0.126027565633579 0.099543011808523513 -0.00089547503294386114 -0.085821971362333896 0.093262921036032981 0.097836164204873746 0.0097809091571574597 0.016917177389063967 -0.0098883566081045746 0.078522269687654425 0.041997195346269993 0.099421008807218991 -0.022600536604887186 -0.0034515634243194671 0.044062847144806488 -0.047946610182699169 0.026089875677840636 0.12117669306700707 0.031251346071831144 -0.044086111795959781 0.059584298973796003 0.11725363398202496 0.044273762611910149 -0.148077146530672 0.13585209677744428 0.096756485151939964 -0.098890181558408286 -0.035102949921367824 -0.025090888847444787 -0.019101944198795337 0.092724850209136067 0.013344690381397007 -0.12658385871005731 0.025468466550078336 -0.0079632730151356444 -0.024892388449466344 0.00657042621020585 0.093233191177192962 -0.057166897333111921 0.055522455807540762 -0.10945198848862155 -0.07418441216503209 -0.025092047353336578 -0.055093284021889288 0.082074731279125832 0.011174733507159607 0.0093151887798342548 0.070886965018774395 -0.14642305429531161 -0.057508017987054884 0.10979589394703762 0.074553589215914304 0.03596308224350072 0.081736044935198621 -0.039761305441620959 -0.074384906860735733 -0.096528725279444241 0.020417771942923203 -0.094486782203473466 0.0023046497724730744 0.10692340760517338 -0.067310652638885485 0.059099440679169016 -0.12581945673511877 -0.076882461669096486 0.083850020400129122 -0.013599588914786451 -0.015364360163902555 0.138326936368172 0.11707570754613239 -0.00045504794421507238 -0.080084109912798379 -0.12307794307776083 0.022649307601377459 -0.084732444610878491 0.16003927049063998 -0.083223905007126703 -0.045786170363975254 -0.068511018046409106 -0.083227973618420562 -0.05129385444126975 0.012054598906227081 0.065312363670228857 0.083667793800367624 0.064596568812000932 0.028345823505508946 0.089431251740363066 0.022084001977897449 0.14615152255013192 -0.018677554332391537 0.053647498632698576 -0.079243572416252114 0.058870528877574158 0.094168007195236533 -0.04268870921488363 0.028145874218106267 0.031960661429687925 -0.05984680554763349 0.0194724905372166 0.065605245804368911 -0.089603613385737843 -0.0042574517187877218 -0.11485809845737785 -0.052363561799044847 -0.057931921963912315
leaf_weight=209.56870926916599 19736.607895255089 2071.1872971653938 393.36502373218536 760.06951251626015 703.60440841317177 685.87838190793991 705.28190112113953 7127.6997088491917 157.73595604300499 1162.1123664826155 521.88159421086311 85.478707686066628 6997.3206530958414 257.38361275196075 2979.7220416665077 8010.1178736537695 9190.3612901717424 2764.0489457994699 3485.9204355180264 4776.5015495121479 975.48735915124416 1805.2895012646914 1743.0973768979311 195.98421333730221 333.87044036388397 1603.0310772806406 343.38997593522072 2451.9805502146482 1494.8552462011576 3308.3235126882792 1264.1561970561743 4041.0016272813082 885.20764170587063 597.93030974268913 4041.4164871871471 477.02890332043171 257.83501914143562 4761.7794029414654 1635.9462400227785 4580.6452961862087 734.061981767416 4033.9738462865353 3746.1485256701708 5987.8176766335964 2241.8589204847813 322.30026885867119 125.02345889806747 37.641030997037888 1972.9215944260359 215.69269882142544 752.50513243675232 3533.9501500278711 461.14053365588188 2840.2581010311842 1885.0361635535955 608.91569839417934 1819.2274945676327 4327.5147186815739 1441.7486784309149 676.33915895223618 1138.8390796631575 72.298928663134575 4512.8273452967405 3911.6752046495676 2983.1359441578388 3455.4146888852119 1199.0609396547079 4279.9773984998465 3494.1894718408585 1403.2686301916838 282.56225588917732 4066.2717924416065 3148.7147766798735 3309.117725789547 4411.6708270609379 2668.7030620574951 721.60217799246311 3529.8088729977608 14621.808787241578 970.96451066434383 208.56676188111305 267.66767789423466 604.32299973070621 300.61257813870907 558.82449790835381 5943.1097185760736 2410.0243538171053 651.44429810345173 5228.0080498605967 462.20069237053394 9342.5596779882908 1954.6818941682577 1004.6516946852207 6748.2687638103962 6735.8278965801001 504.81847681105137 7559.1062948554754 12953.91372320056 2591.6773489564657 1632.2408094257116 3924.470943108201 3247.8230118304491 1724.0556830465794 737.80458931624889 909.26180496811867 3826.4906173497438 1504.564487695694 2003.480818644166 1560.5467230975628 659.03234192728996 2837.1866589784622 2722.5703822523355 1992.584068775177 432.36870549619198 396.81310911476612 3005.3737323880196 4961.899345561862 980.49121627211571 4369.3807516098022 1357.8445107638836 398.78041653335094 811.53812621533871 127.36299093067646 589.52407462894917 283.98597149550915 2721.5627435296774 197.6834584325552
leaf_count=856 91408 8508 1629 3348 3033 2849 2840 28642 653 4815 2192 347 31988 1111 12687 32260 37198 11391 14059 19357 4381 7276 6997 794 1402 6889 1377 9826 6075 13539 5291 16230 3578 2404 17046 2017 1053 20271 6678 18461 3014 16969 15063 24102 9130 1469 509 165 8741 874 3084 14534 1863 11663 8438 2523 7647 18074 5945 2719 4908 296 20235 17261 12552 15005 4825 17420 14325 5643 1294 17530 12621 13354 17848 10718 3100 15302 64540 3966 910 1095 2433 1271 2250 26912 10623 2663 21644 1915 37758 7862 4208 29171 30603 2133 32940 52594 11337 7015 16744 14319 7249 3030 3668 15405 6080 8107 6267 2691 11450 11409 8040 1931 1596 12066 20943 3991 17746 5671 1663 3262 554 2482 1231 11740 827
internal_value=-0.000305827 0.0684655 -0.0652417 0.0315077 -0.0440101 -0.0587459 0.120563 0.0523594 -0.114942 0.0354555 -0.0102461 -0.0661044 -0.0919097 -0.0912428 -0.0793772 0.0764795 0.137535 -0.0293752 0.092256 0.016581 -0.0488392 0.0606682 0.0718876 0.0126974 -0.0820714 -0.0330236 0.0398477 0.0592032 0.079827 0.0240764 -0.0621856 0.0737071 0.12155 0.035392 -0.0420272 -0.0648185 -0.0661186 -0.062591 0.0679906 0.148015 -0.0375087 -0.044838 0.0810394 0.105282 0.00847502 -0.0301855 -0.000580976 -0.134925 -0.0672169 0.0641384 0.019769 -0.00168626 0.0289187 -0.00553067 -0.0908117 -0.0329222 -0.0359255 -0.0109589 -0.0239996 0.059202 -0.0766951 -0.0607754 -0.110568 -0.0950383 -0.0139489 -0.0676494 0.0365892 0.029682 0.0320024 0.0293011 -0.0076324 -0.0643967 0.0922185 0.0881249 0.0515774 0.10373 -0.0732845 -0.0680532 -0.0917632 -0.0161914 -0.0221559 -0.07275 0.0683386 -0.0038298 0.0115017 -0.120485 -0.0983828 0.0558673 -0.0168705 0.0341868 0.132683 0.107184 -0.0259214 -0.0715293 -0.11947 0.0444149 -0.0809639 0.153806 -0.0785588 -0.0690623 -0.0561305 -0.0701853 -0.0721545 0.0585682 0.0414555 0.064617 0.0520912 0.0437686 0.0723449 0.0464671 0.130729 -0.0300822 0.0736241 -0.0637913 0.113901 0.109625 -0.0348193 0.0537221 0.0218981 -0.0414896 0.0401566 0.0421546 -0.0112807 -0.042246 -0.0465956 -0.0452435 0.00627068
internal_weight=327473 159040 168433 93055.5 118018 17460.7 65984.2 75594.8 50415.8 44433.3 46680.8 71336.8 23473.3 13136.8 40331.5 31161.5 48943.1 25456.5 16287.7 25410.6 31005.3 19022.7 17041.1 21224.4 38998 24411.7 4323.98 14873.8 14771.7 21448.9 18073.8 13028.7 19381 2092.79 17320.1 9553.17 16809.6 15834.2 16753.8 29562.1 15717.1 11999.9 10935.9 7874.16 9546.33 12931.5 1333.45 26942.4 9395.43 2778.66 2269.33 6842.27 11230.4 9994.01 24282.2 12447.3 11838.3 7091.56 3961.71 11639.4 1461.14 6433.58 13920.2 20418.5 3717.2 14715.8 11902.6 9056.48 10708.5 10247.3 9798.03 15576.3 7189.72 5114.41 12421.8 12801.8 11736.1 3863.68 18533.5 6957.77 5986.8 550.23 1489.53 1545.32 1244.7 6703.18 6922.85 1044.81 5436.57 2704.06 11506.8 2164.25 1389.4 10814.5 7205.84 629.842 8280.71 22144.3 6196.84 4223.92 7958.44 5044.18 4971.88 2846.13 1647.07 10003.5 4184.38 3508.05 2562.97 1002.42 7417.83 10377.2 5819.07 470.01 6384.63 10133.1 8557.98 2383.76 7863.57 2519.96 484.259 1516.82 1132.01 5835.41 5245.89 3198.59 2268.87
internal_count=1379524 648302 731222 381838 502766 75576 266464 306262 228456 180843 194097 308669 104349 57997 176350 125419 197888 106971 65485 103849 132319 76994 68576 87126 170675 102679 17579 59934 59390 87418 77697 52393 78185 8479 73214 41503 72406 68025 67659 119703 66325 50759 43914 31709 39118 54622 5675 124107 40850 11209 9186 28073 45760 41366 106943 52612 50089 29465 16431 47029 6377 27737 62846 90239 15566 63732 48300 36777 43568 41705 40572 66972 28851 20630 50108 51426 51045 16704 81801 28909 24943 2389 6011 6370 5099 30260 30858 4292 22554 11045 46476 8718 5873 46701 32699 2642 36040 89792 27093 18352 33713 21864 21568 11523 6698 40351 16906 14187 10335 4068 29911 43712 23445 2096 25698 40708 36065 9634 32071 10486 2010 6102 4762 24656 22174 13757 9335
cat_boundaries=0 1 2 3 4 5 8 9 12 15 16 17 20 21 22 25 28 31 32 33 34 37 38 39 40 43 46 47 50 53 54 57 60 63 64 65 66 69 72
cat_threshold=6192 1602 8585 1536 2 1058 1179648 33587840 6242 276825346 131200 6455808 134218754 1179648 2359296 13840 1 134218754 1179648 2359296 66 80 8388608 524288 1778418176 411042818 131072 2130432 16777216 2625576 1208221824 98 4099 163 2048 0 65536 64 2608 1664 1024 1179648 2359296 67110914 8 65544 4096 32 0 1107329024 2231369760 2625576 671875216 3616 0 0 671154176 67108864 0 2162696 150994976 0 65544 35 6209 1 2550136842 12298 1610973712 2056 0 520
is_linear=0
shrinkage=0.1


Tree=4
num_leaves=128
num_cat=61
split_feature=2 10 1 2 2 10 9 1 1 5 10 1 10 1 3 10 3 1 1 10 1 1 9 1 1 10 1 9 1 1 1 1 3 1 5 3 1 1 1 10 1 9 1 1 3 10 9 9 1 9 10 1 9 10 10 5 0 1 0 1 1 1 9 10 1 9 9 1 1 1 10 1 9 1 0 9 1 0 1 1 1 1 1 10 5 5 3 1 0 9 5 9 1 3 9 1 9 3 9 5 9 1 0 0 2 1 1 0 4 5 10 1 4 5 9 5 1 9 4 9 4 5 10 9 10 0 9
split_gain=54981.2 48941.6 11967.7 8050.91 7105.52 4125.25 3883.14 3841.23 3773.24 3691.46 2476.58 2313.86 2013.36 1754.13 1748.48 1566.87 1524.82 1457.43 1256.73 1204.95 1176.12 1126.16 1020.75 1830.57 829.057 800.745 796.595 769.098 741.763 734.903 728.759 723.312 705.038 692.878 609.273 574.854 530.801 503.544 472.384 452.233 451.95 437.817 464.575 412.205 472.268 401.048 400.808 392.739 385.876 370.85 369.552 358.222 331.091 329.405 323.134 308.638 297.465 445.333 334.372 293.312 291.728 284.603 284.445 274.155 266.736 263.293 257.159 256.873 248.939 248.587 243.82 239.593 227.59 284.54 263.525 221.819 220.892 220.397 219.309 218.961 217.043 216.385 214.823 214.07 213.904 209.775 201.044 203.27 195.423 192.795 189.112 186.162 181.493 178.238 177.976 172.553 171.822 171.05 166.771 166.083 165.942 397.721 162.256 646.64 161.362 154.023 153.89 153.771 150.175 146.485 143.571 142.093 139.804 139.652 136.572 134.243 132.224 130.22 129.695 128.843 127.961 127.586 123.933 123.372 121.444 121.17 119.161
threshold=0 2.5000000000000004 1 2 3 6.5000000000000009 8619.0000000000018 4 5 4.5000000000000009 2.5000000000000004 6 1.5000000000000002 7 8 1.5000000000000002 9 10 11 18.500000000000004 12 13 99220.500000000015 14 15 1.5000000000000002 16 20142.500000000004 17 18 19 20 21 22 1.5000000000000002 23 24 25 26 2.5000000000000004 27 9312.5000000000018 28 29 30 2.5000000000000004 85137.000000000015 19380.500000000004 31 88496.500000000015 3.5000000000000004 32 12163.000000000002 2.5000000000000004 1.5000000000000002 3.5000000000000004 326500.00000000006 33 282500.00000000006 34 35 36 3072.5000000000005 4.5000000000000009 37 68988.500000000015 3784.5000000000005 38 39 40 4.5000000000000009 41 48264.500000000007 42 299500.00000000006 6818.5000000000009 43 666500.00000000012 44 45 46 47 48 6.5000000000000009 2.5000000000000004 1.5000000000000002 49 50 515500.00000000006 17949.500000000004 1.5000000000000002 2790.5000000000005 51 52 141677.00000000003 53 15126.000000000002 54 20142.500000000004 5.5000000000000009 103048.00000000001 55 27500.000000000004 28500.000000000004 56 57 58 223500.00000000003 118151.82812500001 8.5000000000000018 1.5000000000000002 59 167119.28906250003 6.5000000000000009 6818.5000000000009 2.5000000000000004 60 113782.00000000001 215956.27343750003 51086.500000000007 79174.460937500015 2.5000000000000004 1.5000000000000002 24204.000000000004 30.500000000000004 77500.000000000015 10364.500000000002
decision_type=9 2 9 9 9 2 2 9 9 2 2 9 2 9 9 2 9 9 9 2 9 9 2 9 9 2 9 2 9 9 9 9 9 9 2 9 9 9 9 2 9 2 9 9 9 2 2 2 9 2 2 9 2 2 2 2 2 9 2 9 9 9 2 2 9 2 2 9 9 9 2 9 2 9 2 2 9 2 9 9 9 9 9 2 2 2 9 9 2 2 2 2 9 9 2 9 2 9 2 2 2 9 2 2 9 9 9 2 2 2 2 9 2 2 2 2 9 2 2 2 2 2 2 2 2 2 2
left_child=1 4 10 5 9 8 30 78 35 34 47 25 20 70 17 27 -8 43 -7 26 -11 120 23 -19 -15 80 32 51 62 -14 104 41 -20 92 -1 -3 -12 45 -31 90 84 42 -25 77 89 -18 76 67 -37 65 111 -13 116 121 106 -23 57 58 -33 123 94 -30 -16 99 -46 91 -58 -2 124 -36 98 118 73 74 -59 95 -34 -5 -6 -77 -9 96 -24 113 -29 -53 -41 -88 -64 -45 -32 -35 -22 -47 -28 -52 -55 -70 -10 -43 101 -40 -99 -104 -4 -27 -49 -74 -50 -93 -71 -26 -94 -63 -62 -42 -38 -84 -68 -80 -17 -39 -69 -57 -21 -98 -113
right_child=2 3 6 14 7 18 16 11 13 12 36 15 29 24 28 21 37 22 19 68 33 55 82 31 50 105 60 40 61 38 39 56 46 49 69 48 52 53 100 86 115 63 -44 44 64 93 -48 54 108 -51 75 85 -54 81 -56 59 66 72 -60 -61 114 83 88 -65 -66 -67 71 122 97 110 -72 -73 107 -75 -76 79 -78 -79 119 -81 -82 -83 117 -85 -86 -87 87 -89 -90 -91 -92 109 112 -95 -96 -97 125 102 -100 -101 -102 -103 103 -105 -106 -107 -108 -109 -110 -111 -112 126 -114 -115 -116 -117 -118 -119 -120 -121 -122 -123 -124 -125 -126 -127 -128
leaf_value=0.14906604218933028 -0.078540201298140919 0.0090900693465009851 -0.051621376268786816 -0.098731855420765041 -0.13000383876099422 0.12467952864377928 0.045675676631974242 0.011082644295756479 -0.029934473153984949 -0.080841945098292206 0.10788046854351006 -0.045793572802054809 0.070501336384302379 0.099561172848485355 0.13060156743978099 -0.0052241874234966457 -0.059626019174737616 -0.14087374727986635 0.069205796367968433 0.091494357619747946 0.041270827629099109 0.069940475428573456 0.088178016279645693 -0.033646853416658476 0.049857446046828152 0.015574016561102789 0.045080964259254848 0.057981927678520631 0.13173457072696548 -0.043181243027891676 0.16581414732173061 -0.04803795672288224 -0.11091538619833285 -0.082110225530768299 0.086572681953659289 -0.12284488297561778 -0.042741111419959801 0.018224944371652646 -0.13331741006436101 0.019417086160573672 0.033993594167352002 0.12225008114714242 0.089757914744368367 0.0070048090370185808 0.12647559794110311 0.031859184843991514 0.073799747649472544 -0.0030341862400715368 -0.016571764004099456 0.0093417544631861898 -0.063853594370850225 0.096838704128293193 0.060476776032476004 -0.097660646653518188 0.026976099865629728 -0.042204262931612696 0.0054885100698148243 -0.052714077436484298 0.035211711319007979 0.0056010521521389668 0.016776653278461274 0.11486434429777406 0.01848042159945653 0.11164304139276011 0.030660503040738914 -0.14643501424948299 0.067746709557265056 -0.041069419694965012 0.10502320873803334 0.025019817516342226 0.023548198035538311 0.055860557953122482 0.075016522898978838 0.073005767485127548 0.045659836782094343 0.0484123174577464 -0.0054041517499628577 0.050029198508592589 -0.099320415424879738 0.083881268306687601 -0.024516137704455303 -0.01577334852096738 0.13584913387903436 0.11708374702582747 -0.070494617650630934 -0.082596207938892205 -0.092373675618502626 -0.01643553020204196 -0.10938974511492161 -0.14363622541625537 -0.10841619779640553 -0.013852954862616718 -0.027316836443431358 -0.06758745982021111 0.08058465001410349 0.04121052920648343 -0.1000885105217829 0.093901102643282497 0.0034738985208500259 0.066788265510865377 0.054905241455262037 0.020077013039701917 -0.14797856010981389 0.057766230287944198 -0.13017770080565297 0.055019187890439948 -0.040796570640270473 0.13679853459680014 -0.050111904887741802 -0.039167370944953733 0.07851329208210045 -0.029032485919928332 0.013638400757266739 0.075891021795426547 0.091601857570091538 -0.036009159978665183 0.057383389979901035 0.1072282317780598 0.095381223360631553 -0.034115598904038709 -0.058738001172966459 -0.099057099067051901 0.016391209671250524 -0.013388112613287321 0.12290686578588861 -0.048155127496134445 0.021697132076791859
leaf_weight=1053.3186323940754 1782.5540222525597 2211.0733362138271 309.50673764944077 442.00642970204353 3279.1600003391504 3192.5634780973196 1217.4458922296762 2332.2754581570625 2078.9835497736931 3021.3091707229614 1779.7216860800982 3722.3647705167532 2999.5078675895929 3385.6101768314838 170.76101680099964 479.13334147632122 2627.733473867178 387.99470335245132 2030.5331588983536 2745.4390171319246 1736.1968173235655 516.14616732299328 3419.4789728969336 519.53299145400524 1664.0766178518534 1741.6566982865334 7969.0587480515242 132.54084737598896 7701.987862020731 1257.4968390166759 25.221650496125221 616.13915763795376 197.76231636106968 710.40171970427036 2631.5479750931263 639.64022172987461 572.28473764657974 94.239652901887894 163.72160239517689 312.41620276868343 279.38991443812847 671.32141053676605 720.41938382387161 145.47504055500031 332.62620203197002 890.688117608428 648.05253729224205 1928.6617930084467 1762.6809853315353 2303.1559607982635 239.50931468605995 65.49504765868187 1621.6172331422567 1660.0954749584198 1703.6350280791521 2414.7179812043905 526.10852974653244 451.83656179904938 2223.7906158268452 6730.8867492079735 264.23351401090622 1339.5228582024574 452.65072539448738 7686.4557118862867 2102.1580345332623 207.77233764529228 2438.9669459015131 1373.1200685948133 878.84324206411839 1639.2692441940308 4526.2263590246439 3859.9372289925814 2478.8374790847301 1503.603508412838 685.34782725572586 4417.5776929110289 4494.0206519067287 128.55939418077469 4443.723484814167 3032.9349375218153 6411.1972827911377 838.14526614546776 3083.7803688198328 6332.7168144583702 5820.0566632896662 12510.577054396272 1123.5258722007275 536.1612506955862 162.39921513199806 204.23460139334202 8506.809606552124 3809.0809087455273 1122.3676961511374 215.77030472457409 1715.9659393727779 408.58683933317661 549.21260295808315 628.66847966611385 5312.1572408229113 2758.6270186901093 1324.0318237841129 6565.4535126388073 173.62395963072777 1271.1090149581432 26100.951703369617 2369.0525684207678 2466.6270763128996 481.03259369730949 5501.44784514606 5716.4532826542854 723.01283478736877 529.84142895042896 3238.356285482645 2931.573278516531 3174.4840390533209 14052.602453351021 161.88211254775524 3281.097265869379 5592.6537184715271 325.22013308107853 6628.1021316796541 5889.6856252253056 516.56630989909172 3861.9686568677425 2230.8035170286894 2468.6788318455219 3672.2570494711399
leaf_count=4294 7848 9186 1396 1978 15292 12956 5043 9641 8841 13247 7229 15939 12466 13683 702 2023 11449 1835 8341 11257 7245 2112 13802 2255 6822 7184 32906 543 31943 5416 110 2658 878 3183 10878 2910 2470 397 795 1349 1130 2754 2999 621 1377 3736 2613 8035 7523 9502 1051 271 6633 7611 7006 10360 2264 1931 9407 27904 1131 5521 1895 31679 8841 953 10111 5899 3587 6825 18748 16236 10131 6200 2876 18159 19208 548 19802 12333 26926 3643 12698 26192 25144 55209 5161 2342 714 925 39666 16077 4759 943 7011 1697 2425 2635 22027 11362 5394 27421 781 5318 126939 9641 10452 1976 23722 24310 2980 2277 13651 12123 12979 59240 682 13648 23205 1380 28327 26495 2168 16029 9107 10678 15132
internal_value=-0.00033131 0.0208717 -0.0807465 0.0616006 -0.0262202 0.0382244 -0.10228 -0.0438003 0.0166326 0.00793102 0.00190028 -0.0362724 -0.00481037 0.0348233 0.0867915 -0.0448869 -0.0618922 0.0763182 0.0651332 0.0583803 -0.0230225 -0.0228581 0.0812375 0.0729795 0.0551107 0.00207627 0.0455942 -0.0573223 0.11238 0.0275376 -0.120307 0.0754973 0.0191939 -0.0137019 0.0799518 -0.0360019 0.0667686 -0.0704722 0.0136062 -0.0975371 -0.0443254 0.0947891 0.0385045 0.0126502 0.028548 -0.038258 8.25568e-05 -0.0255524 -0.0486119 -0.0269585 0.0442706 -0.073498 0.0351029 -0.0808902 -0.00999565 -0.00589345 0.0640289 0.0495748 0.01709 -0.0089071 0.0603602 0.116497 0.0162124 0.101153 0.044214 -0.0349897 0.0739052 -0.0513892 0.0915042 0.0653739 0.00526563 0.0769321 0.0658987 0.0446747 0.00651571 0.0581474 -0.0100995 -0.0640899 -0.109213 0.0630285 -0.0150357 -0.0633331 0.109681 0.105316 -0.0675205 -0.0815968 -0.0544718 -0.0680872 -0.0152827 -0.0787203 -0.107606 -0.0327275 0.0140125 0.0121432 0.0513184 0.00203383 -0.0716673 0.0675557 -0.00592322 0.0776434 0.0225161 0.0161766 0.0512466 0.0330404 -0.129277 0.0384785 -0.0243261 0.0850572 -0.0419155 -0.0290446 0.0412178 0.0251885 0.00309021 0.088114 0.0856033 -0.0346204 -0.0204644 0.120905 0.0868813 -0.0946752 -0.0550529 -0.09721 -0.0252284 -0.0244351 0.105365 -0.0576063 0.0152643
internal_weight=322443 255170 67273 136831 118339 70997.8 53366.3 78116.3 39382.6 40222.5 13906.7 70068.2 34175.3 29267.8 65833.6 57214 16451.7 46742 31615.2 28422.6 21865.1 20631 43387 33602.6 17350.4 12854.2 20494.1 36583 19091.6 12310.2 36914.6 33214.6 7370.37 18843.8 6047.15 10114.8 4135.51 15234.2 9310.7 10504.1 20284.6 12356.4 1239.95 3355.06 2784.49 3734.19 5339.84 9771.16 7903.77 12746.9 13964.8 16298.4 2355.78 11500.1 6098.92 13523.7 20858.3 8440.59 2839.93 13007.6 13123.7 18305.8 785.811 11116.4 2434.78 10443.7 12417.7 3672.24 7928.49 4993.83 11917.4 11891.6 5600.66 2640.79 1137.18 8098.61 4691.78 570.566 8048.1 7450.51 8743.47 5516.13 9784.36 10603.8 5952.6 12576.1 1972.1 1659.69 615.05 349.71 8532.03 10235.9 6096.92 1106.46 9685.02 648.096 4677.99 2952.24 7391.14 3429.95 8053.21 6729.18 2073.4 1444.73 26410.5 4110.71 4395.29 2959.87 7264.13 9525.53 2362.28 5866.18 4360.72 4271.1 3438.72 14332 734.167 6364.88 8031.62 4768.94 7107.24 5983.93 1889.69 6276.69 4976.24 3017.89 4202.1
internal_count=1379524 1071719 307805 568226 503493 294819 249383 334097 164111 169396 58422 297623 144419 120770 273407 244231 72420 194317 130708 117752 92927 86755 180027 139879 71154 53392 85067 157476 79090 51492 176963 138044 31040 79680 24977 43341 17014 67377 39026 48628 86057 51049 5254 14290 11764 16128 22699 41408 34155 54025 57471 71419 9785 51249 25493 56405 86995 35179 12065 54293 54027 75779 3311 45795 10218 44523 51816 15915 32685 20683 49616 49552 23114 11007 4807 33240 20086 2526 36474 30492 36567 24357 40148 43836 25687 55480 8852 7503 2609 1546 39776 43570 25655 4679 39917 2748 20714 12321 30868 14116 33610 28216 8734 6099 128335 16825 18487 12107 31245 40387 9805 24231 18410 17644 14110 60370 3152 26346 33316 21182 30350 26892 8067 26389 20364 13103 17409
cat_boundaries=0 1 25 26 27 51 75 100 125 128 131 155 180 204 229 242 266 288 306 331 355 380 383 404 407 431 452 476 499 523 547 549 569 593 617 641 664 688 705 729 754 778 802 816 826 846 871 894 917 930 933 956 977 980 999 1002 1015 1016 1041 1065 1089 1113
cat_threshold=6770 2097152 0 268435457 4096 16384 2097152 266240 0 2147483648 0 33554432 32 1048576 1612714112 536870912 0 0 0 4202496 2147483648 257 802880 1048576 16448 514 2160 0 65536 536870920 37749376 1024 32 1073741824 0 32784 16777728 134217859 128 0 201326592 0 32768 0 524288 1114112 9600 268435488 0 0 64 0 65536 40 33555072 1024 4384 4096 0 32784 16777216 402653329 67108992 0 67108864 0 0 0 0 1114624 8448 268451840 1073743872 0 64 8913928 32768 16512 0 72 8912896 67125248 0 2415919104 0 524288 270848 2048 0 0 48 128 0 0 2147483648 10240 536870920 65600 536870912 128 8388616 1073741824 2147483648 4194560 2147483648 0 1073741824 0 2098176 131586 2 4 8224 134217792 4 32768 0 573440 532736 2048 0 0 1048580 1024 32 1026 2148671488 35684888 0 524352 1073741824 32768 1 0 131120 0 32 17 0 136316962 8388640 12623892 67141632 0 8192 0 0 16 134217728 0 128 17039360 16 0 1024 132096 2147516416 2377728 1 8256 66560 8192 0 2148532224 33554432 0 8704 4 526336 0 32 128 0 1280 0 2048 0 74240 536870912 32 32769 0 0 0 1073742081 16777216 1 536876065 134283298 8388640 8196 67108864 0 8192 0 128 0 134217744 0 132 131080 0 0 33800 0 0 2147745824 0 2147614720 4096 4096 0 2098176 2 268435472 67108864 134225952 68 4194308 0 0 32768 17302272 4 16384 1073743872 4 1024 32 2147483648 0 0 0 0 0 0 0 0 0 0 0 2147483648 1026 32768 18432 0 64 8913936 71327744 0 64 0 524288 8704 0 128 1 48 262272 0 134217728 0 2048 536870916 66048 553648128 8388608 0 2684354592 33555088 0 32 4096 0 32784 150994944 269484048 67108864 8224 67113024 0 0 0 32768 66048 8192 0 1073743872 0 0 0 0 536870912 0 524288 32 0 32 0 0 0 0 0 0 0 16 2147487744 3 1056768 64 419430400 0 12 960 0 24 32 134217728 0 0 268435472 0 524353 512 2 0 137363456 0 0 0 512 9437184 8388640 4 65536 524288 262208 537985536 1048576 8388608 0 0 67108864 536936704 16656 16777216 16384 40960 0 0 2097152 0 33554432 655424 1048576 0 0 4718720 64 1140850721 2097152 6 4352 65536 8 69632 0 0 1073741824 37748752 67113088 524288 512 2 0 136314880 0 0 67108880 512 0 0 671154176 2147487744 3 1048576 32 994050048 0 12 960 0 24 69664 134217728 0 0 272629768 0 524293 0 2 0 1048576 0 0 671154176 0 0 0 0 16384 0 266240 0 2147483648 0 33554432 0 1048576 2101248 536870912 0 0 0 0 2147483648 1 786432 0 64 0 0 0 8192 0 0 256 0 0 2147483648 0 0 35651584 1 0 1 0 0 520 1048576 67108864 32769 0 0 131072 1 16777216 524288 32 136382496 8388640 8212 67108864 0 8192 67108864 0 0 134217728 268435456 132 131080 0 0 33792 0 0 264224 0 0 4096 2 0 2098176 4194306 16 67108866 8196 0 4194304 0 0 0 16785408 512 0 2080 1048576 0 0 128 0 1 0 0 256 0 0 0 0 0 0 37748736 0 0 512 0 0 0 0 0 67108864 0 0 0 0 0 32 0 0 2097184 0 8212 67108864 0 8192 0 0 0 134217728 0 0 262144 0 0 1024 1024 1048576 0 0 0 33554560 0 32 0 0 0 16777216 0 128 0 0 0 0 0 0 0 256 131074 0 2097152 1073742080 0 1040 2151677952 0 131360 0 8388608 536870912 0 524416 268435456 0 100941824 0 1280 2568 32769 4 512 16777216 0 0 0 0 0 0 0 64 0 0 147456 0 0 0 268436488 0 4 0 0 0 131072 268435456 1073741824 32768 167772160 2147483776 0 256 4 260 2 0 0 172097536 1048576 268566534 16777222 8392704 0 0 0 24576 8192 2048 16777216 16 1056768 8388608 10 0 8 256 128 8392720 0 0 64 131074 3 131076 134217728 0 5 0 262144 0 134217728 2147485696 268439552 32 4 2147483648 0 0 8 406847488 0 5 640 4 24 112 134217728 0 0 268435456 0 1048625 512 0 0 1048576 0 0 67108872 0 0 0 0 0 0 0 0 0 0 0 0 0 0 0 0 16 2097152 0 268435456 4096 0 0 0 0 2147483648 0 33554432 0 0 536870912 0 0 0 0 8192 0 0 0 0 16384 33554432 0 40 0 0 4096 0 0 132112 131074 1 0 0 0 0 0 0 0 512 2048 0 0 1048580 0 128 2147487744 33554434 9437184 0 138412064 0 4 704 0 1073741848 32 134217728 0 0 272629768 0 1572901 512 2 0 1048576 268439552 0 67108864 0 33554432 8454144 8 33554432 0 0 268435456 4 0 147456 0 0 0 268436736 0 5 0 0 0 1048576 1024 0 32768 8388608 0 8388608 0 0 0 0 0 0 0 0 0 0 4194304 0 0 0 33554560 0 0 0 0 0 16777216 0 65536 0 4194944 1024 32 1073741824 0 32768 16777216 134217856 128 0 67108864 0 0 0 0 1048576 256 33685504 2147483648 537133056 0 131076 4 0 0 131072 171966464 1048576 131080 136314880 8390660 0 0 0 0 16777216 2147484160 8192 8 0 0 128 8388608 0 0 0 0 0 0 0 0 0 0 8704 0 0 0 0 0 0 0 0 2048 0 65536 8388608 0 4 1024 0 0 0 0 0 0 0 0 0 0 0 0 0 0 32 0 1024 0 131072 8388608 0 0 0 0 0 0 0 0 0 0 0 2147483648 96 0 1107329040 0 0 0 0 0 0 32768 0 0 2147483648 67108864 8192 0 0 134217728 1 0 0 544 0 0 0 268435456 2147483648 2 0 0 20971520 0 4 768 0 24 0 0 0 0 0 0 0 0 0 0 1048576 0 0 570425352 33685504 2415919104 0 0 132 4 0 0 131072 0 0 268435456 0 0 0 0 2113536 0 16777216 0 0 167837696 0 0 0 0 0 0 0 0 0 0 0 0 2147483648 1024 8388616 0 0 0 8 0 0 0 2415919104 0 0 0 2048 0 0 0 0 0 0 2147483648 0 0 64 0 128 0 0 268435456 0 0 0 4096 0 2147483648 0 0 0 0 2097152 0 0 0 0 0 0 0 0 1048576 16384 524288 268435456 2359296 1 8320 0 2147483648 0 2148532480 134217728 0 537133058 0 526336 0 0 67108864 0 1024 2147484168 8192 40 0 8404992 2097152 0 268435456 0 0 0 0 0 0 0 0 0 0 0 0 0 0 0 4194304 0 0 0 0 16384
is_linear=0
shrinkage=0.1


Tree=5
num_leaves=128
num_cat=40
split_feature=11 2 2 10 11 11 2 2 10 2 10 10 11 10 10 10 2 11 10 2 3 3 3 10 5 2 5 5 0 5 10 3 2 0 11 5 0 2 5 11 2 0 11 11 0 0 5 5 0 0 2 10 0 3 10 4 0 0 0 11 3 11 0 3 5 5 3 3 10 0 2 0 3 11 11 2 4 5 11 4 2 11 5 2 0 11 10 3 5 0 0 3 5 4 5 0 5 5 0 10 11 10 2 4 2 2 3 2 2 3 11 2 10 2 2 0 0 10 4 2 11 0 10 10 5 3 5
split_gain=110811 21969.2 12552.4 11979.5 8392.42 5301.48 3825.91 3723.25 3066.67 2944.44 1658.75 1627.56 1610.86 1348.77 1251.65 1083.03 962.49 941.734 881.991 716.654 632.259 621.071 617.094 583.199 524.807 520.908 479.643 473.92 471.446 433.674 410.369 406.397 400.02 398.585 429.005 384.25 397.733 376.827 347.928 344.666 510.183 319.959 328.051 301.806 288.664 280.455 275.535 273.114 268.888 262.065 261.725 243.5 240.774 238.463 224.351 220.488 213.794 283.53 379.896 200.108 181.56 176.689 169.207 163.481 162.878 160.226 155.591 154.193 151.797 157.335 148.483 142.799 218.62 141.129 138.321 138.152 135.793 134.868 133.637 133.002 130.842 126.565 125.839 122.626 119.602 114.861 113.879 109.211 108.351 108.289 107.224 102.409 100.974 100.527 100.473 99.8518 95.525 94.0918 93.9532 92.9964 92.6047 92.0038 89.9317 89.6659 89.061 87.4318 109.823 84.8156 83.609 83.5618 83.3804 83.3419 118.601 83.0939 82.1542 81.9609 81.2269 80.7107 78.3266 75.9695 75.4026 75.2357 75.2122 74.873 74.6918 73.6981 73.2602
threshold=68.500000000000014 0 1 2.5000000000000004 121.50000000000001 29.500000000000004 2 3 1.5000000000000002 4 5.5000000000000009 1.5000000000000002 186.50000000000003 2.5000000000000004 1.5000000000000002 2.5000000000000004 5 29.500000000000004 1.5000000000000002 6 7 8 9 3.5000000000000004 2.5000000000000004 10 4.5000000000000009 3.5000000000000004 159500.00000000003 1.5000000000000002 5.5000000000000009 11 12 98500.000000000015 33.500000000000007 3.5000000000000004 119500.00000000001 13 4.5000000000000009 21.500000000000004 14 72500.000000000015 28.500000000000004 91.500000000000014 118400.00000000001 109500.00000000001 4.5000000000000009 3.5000000000000004 45500.000000000007 40250.000000000007 15 3.5000000000000004 446500.00000000006 16 12.500000000000002 132625.92187500003 276500.00000000006 96500.000000000015 40250.000000000007 39.500000000000007 17 86.500000000000014 75500.000000000015 18 2.5000000000000004 1.5000000000000002 19 20 1.5000000000000002 294500.00000000006 21 118400.00000000001 22 16.500000000000004 39.500000000000007 23 193545.07031250003 5.5000000000000009 52.500000000000007 194360.27343750003 24 47.500000000000007 5.5000000000000009 25 308000.00000000006 18.500000000000004 5.5000000000000009 26 3.5000000000000004 75500.000000000015 72500.000000000015 27 7.5000000000000009 179266.32031250003 2.5000000000000004 110500.00000000001 2.5000000000000004 1.5000000000000002 462500.00000000006 3.5000000000000004 14.500000000000002 4.5000000000000009 28 79174.460937500015 29 30 31 32 33 34 154.50000000000003 35 1.5000000000000002 36 37 87500.000000000015 96500.000000000015 2.5000000000000004 166269.00000000003 38 5.5000000000000009 168500.00000000003 1.5000000000000002 1.5000000000000002 5.5000000000000009 39 1.5000000000000002
decision_type=2 9 9 2 2 2 9 9 2 9 2 2 2 2 2 2 9 2 2 9 9 9 9 2 2 9 2 2 2 2 2 9 9 2 2 2 2 9 2 2 9 2 2 2 2 2 2 2 2 2 9 2 2 9 2 2 2 2 2 2 9 2 2 9 2 2 9 9 2 2 9 2 9 2 2 9 2 2 2 2 9 2 2 9 2 2 2 9 2 2 2 9 2 2 2 2 2 2 2 2 2 2 9 2 9 9 9 9 9 9 2 9 2 9 9 2 2 2 2 9 2 2 2 2 2 9 2
left_child=1 5 3 14 6 11 108 -6 24 15 33 28 18 27 25 44 46 54 29 47 -20 -18 78 38 107 96 80 126 60 -9 52 56 -28 34 100 65 51 -31 62 40 -27 42 -16 77 45 49 -10 97 -29 -4 -26 76 73 -38 95 101 57 58 -17 -24 -1 117 -23 75 -41 -21 -46 110 -49 -70 -36 -59 -73 -13 -50 -11 -37 -25 -15 -30 -22 -19 -45 -43 -71 -32 125 -84 114 -40 93 -85 -61 -66 -51 -12 -3 -14 -81 -35 -5 -34 -79 -44 -53 106 -92 -8 -2 -91 -57 -77 -113 -103 -39 -60 -96 -48 121 -63 -65 -90 -47 -76 -33 -69 -7
right_child=4 2 9 10 7 13 8 12 16 63 17 30 19 22 41 31 21 81 20 35 26 23 59 43 50 39 32 48 79 37 85 124 55 99 70 36 53 88 89 64 -42 83 103 82 66 122 61 68 74 94 -52 104 -54 -55 -56 67 -58 71 115 92 -62 119 -64 120 90 -67 -68 86 69 84 -72 72 -74 -75 123 111 -78 102 -80 98 -82 -83 87 91 -86 -87 -88 -89 118 109 105 -93 -94 -95 116 -97 -98 -99 -100 -101 -102 113 -104 -105 -106 -107 -108 -109 -110 -111 -112 112 -114 -115 -116 -117 -118 -119 -120 -121 -122 -123 -124 -125 -126 -127 -128
